/* Generated by Edge Impulse
*
* Permission is hereby granted, free of charge, to any person obtaining a copy
* of this software and associated documentation files (the "Software"), to deal
* in the Software without restriction, including without limitation the rights
* to use, copy, modify, merge, publish, distribute, sublicense, and/or sell
* copies of the Software, and to permit persons to whom the Software is
* furnished to do so, subject to the following conditions:
*
* The above copyright notice and this permission notice shall be included in
* all copies or substantial portions of the Software.
*
* THE SOFTWARE IS PROVIDED "AS IS", WITHOUT WARRANTY OF ANY KIND, EXPRESS OR
* IMPLIED, INCLUDING BUT NOT LIMITED TO THE WARRANTIES OF MERCHANTABILITY,
* FITNESS FOR A PARTICULAR PURPOSE AND NONINFRINGEMENT. IN NO EVENT SHALL THE
* AUTHORS OR COPYRIGHT HOLDERS BE LIABLE FOR ANY CLAIM, DAMAGES OR OTHER
* LIABILITY, WHETHER IN AN ACTION OF CONTRACT, TORT OR OTHERWISE, ARISING FROM,
* OUT OF OR IN CONNECTION WITH THE SOFTWARE OR THE USE OR OTHER DEALINGS IN THE
* SOFTWARE.
*/
// Generated on: 03.11.2020 07:36:16

#include <stdio.h>
#include <stdlib.h>
#include <vector>
#include "edge-impulse-sdk/tensorflow/lite/c/builtin_op_data.h"
#include "edge-impulse-sdk/tensorflow/lite/c/common.h"
#include "edge-impulse-sdk/tensorflow/lite/micro/kernels/micro_ops.h"

#if defined __GNUC__
#define ALIGN(X) __attribute__((aligned(X)))
#elif defined _MSC_VER
#define ALIGN(X) __declspec(align(X))
#elif defined __TASKING__
#define ALIGN(X) __align(X)
#endif

namespace {

constexpr int kTensorArenaSize = 304;
uint8_t* tensor_arena = NULL;
static uint8_t* current_location;
static uint8_t* tensor_boundary;
template <int SZ, class T> struct TfArray {
  int sz; T elem[SZ];
};
enum used_operators_e {
  OP_FULLY_CONNECTED, OP_SOFTMAX,  OP_LAST
};
struct TensorInfo_t { // subset of TfLiteTensor used for initialization from constant memory
  TfLiteAllocationType allocation_type;
  TfLiteType type;
  void* data;
  TfLiteIntArray* dims;
  size_t bytes;
  TfLiteQuantization quantization;
};
struct NodeInfo_t { // subset of TfLiteNode used for initialization from constant memory
  struct TfLiteIntArray* inputs;
  struct TfLiteIntArray* outputs;
  void* builtin_data;
  used_operators_e used_op_index;
};

TfLiteContext ctx{};
TfLiteTensor tflTensors[14];
TfLiteRegistration registrations[OP_LAST];
TfLiteNode tflNodes[5];

const TfArray<2, int> tensor_dimension0 = { 2, { 1,135 } };
const TfArray<1, float> quant0_scale = { 1, { 2.4784314632415771, } };
const TfArray<1, int> quant0_zero = { 1, { -128 } };
const TfLiteAffineQuantization quant0 = { (TfLiteFloatArray*)&quant0_scale, (TfLiteIntArray*)&quant0_zero, 0 };
const ALIGN(8) int32_t tensor_data1[75] = { -1, 0, -1, 0, 0, 0, 0, 0, -2, 0, -1, 0, 1, -3, 3, 0, 0, -2, -1, 0, 0, -1, 0, -3, -1, -4, -4, 0, -1, -1, 0, 0, 3, -2, 0, 0, -1, -3, 1, 0, 0, -2, 0, 0, 0, 1, 0, -1, 1, 2, -2, 0, 2, 0, -3, 3, 1, 5, -3, 0, 2, 0, -1, 0, -1, 0, -4, -1, 0, -3, 0, 0, 3, -2, 2, };
const TfArray<1, int> tensor_dimension1 = { 1, { 75 } };
const TfArray<1, float> quant1_scale = { 1, { 0.0034754143562167883, } };
const TfArray<1, int> quant1_zero = { 1, { 0 } };
const TfLiteAffineQuantization quant1 = { (TfLiteFloatArray*)&quant1_scale, (TfLiteIntArray*)&quant1_zero, 0 };
const ALIGN(8) int32_t tensor_data2[50] = { 0, -1, 0, -1, 0, 0, -1, -1, -1, 0, 0, 0, 0, 0, 0, 0, -1, 0, -1, 0, 0, 0, -1, 0, 0, 0, -1, -1, 0, 0, -1, 0, 0, 0, 0, 2, 0, 0, 0, 0, -2, -1, -1, -1, -1, 0, 0, 0, 0, 0, };
const TfArray<1, int> tensor_dimension2 = { 1, { 50 } };
const TfArray<1, float> quant2_scale = { 1, { 0.0079881595447659492, } };
const TfArray<1, int> quant2_zero = { 1, { 0 } };
const TfLiteAffineQuantization quant2 = { (TfLiteFloatArray*)&quant2_scale, (TfLiteIntArray*)&quant2_zero, 0 };
const ALIGN(8) int32_t tensor_data3[25] = { 1, 0, 0, -1, 1, -2, 0, 0, 0, -1, 0, 0, -2, 0, 0, 0, -2, -1, 0, 0, 0, 0, 0, -1, -1, };
const TfArray<1, int> tensor_dimension3 = { 1, { 25 } };
const TfArray<1, float> quant3_scale = { 1, { 0.0087640918791294098, } };
const TfArray<1, int> quant3_zero = { 1, { 0 } };
const TfLiteAffineQuantization quant3 = { (TfLiteFloatArray*)&quant3_scale, (TfLiteIntArray*)&quant3_zero, 0 };
const ALIGN(8) int32_t tensor_data4[8] = { 0, 7, 1, 1, 0, -3, -1, 0, };
const TfArray<1, int> tensor_dimension4 = { 1, { 8 } };
const TfArray<1, float> quant4_scale = { 1, { 0.0046496978029608727, } };
const TfArray<1, int> quant4_zero = { 1, { 0 } };
const TfLiteAffineQuantization quant4 = { (TfLiteFloatArray*)&quant4_scale, (TfLiteIntArray*)&quant4_zero, 0 };
const ALIGN(8) int8_t tensor_data5[75*135] = { 
  -88, 41, -4, -73, 115, 74, 76, 20, -75, 69, 15, 32, 35, -42, -96, 32, 15, -44, -31, -51, 111, -84, -64, -37, 95, -44, -9, -9, -95, 40, -80, 14, 92, 111, -43, 62, -35, 83, -31, -31, 78, -64, -78, 54, -110, -104, -59, 96, 70, 98, -96, -90, 68, 45, 103, -65, 41, 23, 95, 58, -75, 31, 0, 44, -50, -35, 106, 110, 9, -114, 55, -63, 86, 42, 24, -74, 116, 43, 17, 7, -113, -40, -11, -86, 2, 110, -87, 56, 80, 112, 9, 26, -22, -79, 106, -4, 32, -92, 85, 112, 116, 71, 118, 13, -5, 31, -113, 24, 111, 3, -59, 63, -37, 18, -96, -86, -34, 45, 113, 13, -114, 62, 68, -77, -117, -50, 65, -35, 42, -36, 69, -49, -1, 105, 16, 
  16, 20, 83, -90, -48, -100, -4, -59, 95, 75, 58, 4, -110, 114, 97, -67, 101, 112, -70, 63, 14, 65, 49, -50, 100, 67, 63, -13, 101, 48, -99, -99, 55, 109, -118, -76, 78, -36, 92, -26, 41, -71, 64, 83, 3, 30, 18, -111, -14, 78, -91, 73, -35, -86, -43, -78, -64, -102, -117, 91, 102, -64, 45, -42, 55, -42, 89, -48, -115, 12, -62, -19, 75, -20, 98, 69, -118, -19, -30, 47, 120, -108, -66, 45, 38, -102, -86, -114, 110, 26, -50, -76, -58, 70, 79, -22, 40, -4, -73, 14, -58, -105, -112, 4, -38, -16, 59, -32, -89, -2, 71, 13, -15, 37, 113, 16, -6, -95, -30, 96, -53, -110, 4, 97, -61, -61, -37, -83, 20, 19, -79, -58, -119, 117, -41, 
  -2, -103, -53, -66, -102, -64, 106, 81, -80, 24, -14, -108, 12, 11, -41, -1, 41, 90, 99, 97, 68, 74, 102, 79, -40, 94, 66, -4, 92, -32, 19, 4, 118, 119, -94, -107, -11, 113, 121, -48, 84, -48, 107, 86, 82, -46, 88, 104, 14, -51, 54, 6, -51, -96, 69, 97, -22, -5, -118, 73, -18, 98, 88, -113, -5, 52, -20, -7, -61, -99, 32, 3, 103, 67, 15, 24, 27, -104, -100, 56, -46, 19, 118, 86, -71, 100, 35, -20, -3, 59, 59, -108, 5, -35, -114, -65, 65, 101, -29, -31, 101, 49, 17, -85, -15, -81, -3, -59, -111, -115, -25, 119, -43, -2, 96, -81, -19, 47, 96, -47, 62, -91, -48, -95, -47, -30, -58, -4, -1, 71, 71, -43, -68, 73, 29, 
  -116, 104, -23, 113, -59, -99, 50, -102, 0, 12, -70, -98, -75, 63, -13, -101, -111, -96, 77, -79, -86, 65, 65, 52, -5, -59, 73, 76, 32, 40, 78, 67, 48, -70, 7, -107, -43, -78, -34, 68, 73, -8, 73, -39, -25, -2, 26, -90, 105, -33, 99, -69, -120, 69, 112, -10, -98, 33, -78, 106, 4, -49, 4, 25, -89, -91, -120, -72, -20, -68, 100, -62, 116, -116, 53, -40, -99, 83, 56, 64, 63, -41, -84, -62, -30, -101, 74, 80, -40, 109, -20, 91, -59, -11, -111, 30, 4, 73, 79, -88, -107, 4, -96, 64, -92, -36, 84, -15, 61, 117, 21, -1, -109, 47, -34, -14, 55, 45, -41, 67, -7, 47, -32, 69, -43, -4, 69, 93, -58, -107, 30, 9, -39, 10, 48, 
  1, 56, 74, -38, -5, 34, -69, -41, 8, 62, 10, -51, -6, -53, 69, -92, -85, -89, 104, -50, 45, -33, -51, -31, -81, -103, -30, 16, 24, 8, 29, 99, -68, 75, -111, 80, -84, -59, -31, -38, -64, -64, 29, 14, 29, 71, -48, 88, 8, -117, -81, -62, 69, -116, 46, -117, 37, 64, -55, -117, -60, -91, 94, -26, 8, 90, -90, -68, 15, -90, 110, -45, -52, 109, 113, -74, -83, 84, -80, 18, -63, 4, 84, 28, 100, 83, -114, -21, -22, -26, 15, 23, 42, 12, 87, 28, 103, 2, -40, 87, -82, -71, -115, -88, 37, 29, 86, 15, 53, 63, 98, -57, 61, 71, -4, -109, 62, 69, -36, 83, -42, -104, -35, -64, 14, -65, -8, 32, 6, -98, -79, 117, -12, 10, 54, 
  60, -21, -59, 100, 21, -76, 28, -87, 54, 35, 75, 5, 75, 19, 28, 17, -26, -56, -107, -19, -109, 69, 75, 63, 36, 2, -50, -36, -68, 34, -119, -87, -80, 104, -18, -61, -109, 70, -119, -25, -11, 102, -34, -61, 103, 118, 3, 56, 4, -19, -2, 69, -10, -56, 58, 93, -74, 8, 118, -26, 74, 104, 76, 81, 112, 19, 37, -10, 72, -6, 89, 61, -36, 64, -93, 59, 28, 59, -17, -79, -117, -84, -33, 25, -109, 113, -60, -78, -78, -20, 39, 17, -23, -69, -54, -2, -51, -86, 108, -94, 73, -88, -104, -64, -106, 29, -88, -90, -3, 98, -61, -9, 40, -54, 48, 107, -72, -21, 64, -69, 116, 57, 25, -98, -15, 116, -12, 37, -32, -96, -118, -78, -27, -42, -52, 
  -86, 29, -57, 103, 31, 57, -50, -25, 57, -106, -37, -32, -4, -61, -18, 96, 50, -40, 45, -57, -64, -104, 47, 89, -43, -118, 84, -34, -88, -52, -64, -51, 77, 47, 50, 94, 89, 34, -82, -22, -18, -29, -15, -43, -57, 116, 23, -118, 102, -31, -16, 101, 99, 102, 38, 54, -82, -71, 20, -118, -77, 83, 94, -60, -108, 82, -22, 0, 33, 49, -16, 100, -53, -9, 81, -33, 29, -115, 68, 88, -51, 34, -65, -103, 39, -111, -4, 93, -52, 51, -35, 86, -30, -58, -92, 112, -13, -119, -50, -50, 48, -52, 111, 105, 119, 81, -11, 21, 41, 64, 99, -82, 94, 49, 55, -64, 113, -38, -2, -91, 63, 24, 67, -76, -118, 114, -42, -77, 79, -114, -74, -20, 6, 94, -42, 
  -40, 0, 85, -58, -12, -114, 67, -88, -105, -80, 21, 26, 90, -93, -55, 83, -18, 55, -51, -96, 57, -29, -51, -76, -107, 117, -88, 116, 29, -82, 94, 30, 24, -98, -43, -93, -72, 73, 95, -104, -117, -82, -4, 68, -117, 47, -112, -117, -73, -115, -57, -7, 112, -23, 97, 52, 29, 93, 19, 22, 53, 89, 59, -111, -119, -80, 23, -114, 4, -9, -66, -12, -92, 71, 102, -28, 86, -108, -23, 43, 95, -2, 91, -39, 46, 52, -110, 113, 78, -117, -22, -106, -105, -78, 111, -109, -105, -119, -13, -56, 17, -21, 89, 101, 49, 58, -99, 87, 83, -96, 50, 70, 42, 15, 75, 43, 85, 76, 18, -81, -15, -86, -115, 67, -104, -70, 45, -31, -68, -85, 118, 76, -93, 20, 29, 
  32, 27, -85, 100, -77, 65, -39, 61, -45, -30, -19, -11, 2, 70, -89, 18, -24, -71, 102, -98, 104, 65, -57, 73, 91, 66, 111, -9, 48, -99, 98, -66, -46, -30, -49, -7, -82, 70, 88, -100, 90, 106, 62, -61, 70, 52, 76, 115, 85, -76, 72, -60, -58, -70, -120, -90, -119, -112, -109, -125, -47, 70, 75, 110, 110, 71, -51, 27, -90, -99, 43, -111, 23, 9, 64, -70, 0, 65, 33, 5, -106, -9, 1, -108, -51, -94, 64, -32, 114, -93, -56, -65, 103, 111, 76, 103, -100, -60, -124, -121, -119, 91, -44, 89, 7, 28, -56, -62, -110, 41, 94, 77, -59, -60, -32, -123, -52, 73, -110, 99, -3, -123, 81, 5, -48, 22, -56, 98, -68, 101, -63, -97, -102, 75, 35, 
  -6, 38, -102, -20, -51, 22, 104, -88, -93, -61, -56, -94, -93, 39, -37, -44, -68, 114, 82, -19, 1, 111, -23, -26, -100, 110, 119, -59, -34, 66, 118, 57, 41, 100, -26, -38, 119, 31, 85, -32, 59, 74, 80, -63, -111, -93, 67, -104, -106, -98, -15, -99, -66, 76, -51, -97, -91, 5, 44, 45, 53, -71, -14, 104, -6, -77, -30, -107, -56, -95, 100, -95, -105, -73, -104, 112, 34, -41, -111, 76, -99, 3, -108, 103, 8, -2, 6, -45, -15, 67, 108, -48, -72, 55, -4, 46, -72, 97, 26, -25, -120, -49, -45, 48, 50, 60, -54, -37, -110, 25, -20, 92, -85, 37, -61, 119, -31, -89, -27, 10, 18, 26, -58, 114, -83, 82, 10, -51, 27, 89, -115, -65, 103, 111, 80, 
  -99, -7, -98, 50, -92, 98, -91, 69, 109, -38, 30, -73, 73, -15, 89, -17, -70, 22, -7, -24, -59, 49, 75, -59, 76, -89, 0, -109, 33, 2, -17, -67, 48, 16, 82, -15, 77, 26, 53, -28, 48, -98, -21, 34, 53, -100, 73, 80, 33, 45, -70, -70, 33, -124, 70, -94, 84, 95, -119, -67, 24, 83, 64, 107, -10, 80, 16, -117, -41, -50, -9, -77, -61, 15, 54, 101, 29, -15, 112, 115, 24, 58, -19, 87, -69, -95, -84, -88, -89, 35, -76, 5, 42, -78, -120, -7, 98, 16, -92, 8, 87, -108, -58, 104, -38, 83, 14, 69, 110, -118, -123, -35, -24, -40, 32, 98, -113, -50, -25, 0, -94, -77, 53, -50, 88, 93, 47, -27, 19, -45, 26, 94, 73, 33, 2, 
  99, -46, -96, -97, 52, -42, -67, -26, -104, -43, 83, 116, -13, 53, -57, -98, -30, -49, 71, -92, 30, 26, -118, 4, -6, -107, -118, 72, 69, -21, -28, -106, 74, -80, 68, 71, 102, 12, 32, -35, 44, 34, 43, 120, -20, 56, -44, -3, 27, -91, 75, -6, -61, -24, -30, -21, -116, 20, 23, 7, -21, -92, -27, -52, 45, 1, -55, 30, 67, -110, -42, 47, 37, -60, -30, -39, 103, 93, 17, -48, 36, 28, 25, -11, 26, -70, 113, -7, -78, -120, -113, -4, 18, 85, -73, 28, -47, -55, 37, -101, 52, -28, 100, 41, -14, 93, 12, 76, 36, -33, -50, 29, -62, -104, 30, 30, -110, -86, 31, -86, 30, 52, 24, 23, -93, 110, -67, -12, 5, -8, 81, 3, -109, -108, -36, 
  42, -100, -72, 50, -114, -38, 21, -81, 77, 12, -63, 74, -47, 2, -82, -16, -92, -104, 61, 81, 78, 91, 40, 105, 94, -91, 55, 121, 88, -22, -52, 19, -43, -95, -92, 35, -92, 47, -26, 47, 94, -51, -112, 4, -6, -77, 66, 26, -26, 14, 72, 2, 45, -75, 44, 4, 40, -104, 3, -45, 44, -36, 34, 43, -112, 49, 83, -81, 93, 77, -2, 117, 76, 34, 105, -26, 78, 71, 5, -106, -36, -76, 47, -77, -27, 115, 76, 7, -8, -116, 74, -114, 34, -25, 107, 33, -100, -12, 7, -73, -5, 26, -59, 100, -21, 114, 114, 7, -43, -11, -51, 76, -95, 26, 23, -29, 58, -69, 29, 60, -12, 4, 80, -114, 84, 59, 47, -55, 9, 33, -52, 67, -22, 115, 26, 
  10, 72, 15, -83, 23, -4, -12, 87, -120, 81, -92, -119, 7, 98, 106, 13, -5, 98, -117, -64, -92, -19, 11, 1, -28, 4, 65, -67, -71, 47, -15, 97, -87, 76, -114, -106, -61, -65, -45, 30, 21, -55, -63, 98, 63, -29, 119, 96, 61, 86, -3, -56, -94, 115, -24, 16, 48, 1, 66, 53, -33, 90, -42, 104, -6, 59, -111, 112, 98, -9, 5, 3, -105, -5, 30, -78, 89, -42, 106, 53, -46, 89, 21, -27, 110, 104, 31, -87, -125, -41, -30, 47, -78, 71, 93, 77, 107, -55, -47, 109, -59, 9, -101, -56, 57, -73, -80, -6, -105, -68, 73, 21, -111, 58, 24, 33, -33, -52, -72, -80, 82, -77, -69, 38, -91, 98, 79, -2, -45, 68, 41, 67, 36, -73, 41, 
  -69, -101, 25, 93, -15, -95, 28, 0, 20, -15, -86, -48, 1, 86, -62, 100, -115, 108, -23, -65, 34, -75, -71, -7, 37, -63, 118, 32, -85, 117, 108, -50, -35, 42, -7, 102, 48, 36, 109, -27, 112, -97, -26, 4, -97, -93, 47, -21, 109, 13, 78, 29, -59, -9, -10, -49, 86, 40, -23, 32, -96, 9, -58, 116, 122, -81, -41, -68, -7, 76, -96, -27, 81, -7, 105, -61, 65, 4, -77, -21, -3, 51, -26, -57, 59, 73, -92, 52, 31, -52, 51, 19, 38, 60, -101, -121, -100, -117, 87, -103, 91, -108, 26, 53, -98, 24, -35, 111, 89, 76, 64, -40, -50, 95, -8, -72, 118, -96, 57, 73, 87, -19, 7, 41, 89, 72, 63, 20, 51, -115, -16, -28, -66, -40, -99, 
  -73, 112, -2, -81, -91, -13, -38, 49, -110, 104, 116, 78, 70, -111, -52, -23, 70, -87, 21, -11, 90, 77, 3, 38, -99, 24, -84, 78, 108, 61, -19, 17, 39, 47, -57, -32, -32, -48, -73, -83, -108, -47, -44, -104, -116, -25, 71, 47, 53, -52, 39, -85, 87, 108, -73, -101, -19, -103, 85, 30, -43, -81, -13, 29, 23, 98, 104, -42, -48, 72, -95, -38, -27, -27, -109, 7, 102, -113, -53, 15, 73, -107, -24, 111, 10, 28, -7, 45, -46, -101, -85, -84, 42, 118, 61, -16, 30, -19, 52, -107, -42, -62, 114, 80, 28, 23, -96, -42, 73, 36, 29, -83, 88, -8, -49, -75, -59, 98, 12, 33, 11, -107, 37, -28, 63, -4, 13, -10, -117, -81, 100, 107, -47, -57, 42, 
  -89, 12, -56, -25, 57, 87, -90, 57, 9, 86, 11, 24, 37, 18, -42, 117, -52, 11, -54, -31, -110, -24, 3, 94, -110, -104, 111, -70, 21, -22, 62, -116, 37, 102, -31, -88, -111, -45, -103, 25, 52, 16, -105, 47, -90, -64, -6, 45, -69, 69, -50, -89, 30, -39, -36, 32, -40, 52, -19, 104, 36, -66, 61, -32, 46, -40, 16, -18, -70, -63, -12, 112, -70, 47, 111, 113, 8, 0, 120, -74, -73, -64, 88, 25, -57, -75, -33, 12, 62, 84, 119, -23, 91, -74, -35, -26, -4, 69, 43, 117, -85, -105, 47, -94, -57, 77, -30, 12, -42, -46, -84, -72, 79, 118, -47, -69, 56, -118, -93, -103, -1, -78, -87, 102, 63, 70, 79, -35, 107, 88, 11, 61, -33, 99, -75, 
  -57, 88, 91, -92, -39, -29, -28, -65, 66, -106, 47, -8, 105, 45, 105, 27, 87, -34, 71, -48, 86, 44, -13, 58, 7, 6, -82, 70, -30, -15, -54, -82, -18, -37, -51, 1, 70, -29, -45, -39, 29, 53, -89, 89, -59, 59, -80, -45, -30, -38, 58, 31, -88, -21, -44, -24, -28, 93, 112, 95, 80, 22, 54, 27, -2, -12, 89, -123, 17, 31, -109, 79, 32, 19, 19, 41, -5, -17, 37, 43, 72, -41, 99, 59, -61, -20, -41, -101, -9, 112, -31, -1, -14, 11, 27, -69, -104, -80, -26, -121, -54, 73, -90, 36, 65, 96, -76, -81, -114, 28, 94, -103, -29, -35, 106, 43, 26, -43, 9, 18, 106, 100, -116, 46, 99, -96, -81, -20, -67, -79, -120, 46, -36, -97, -1, 
  -82, 14, 49, 18, 81, 95, -65, -39, 66, 82, -102, -28, 92, 111, -84, 1, 11, 0, 5, -1, -74, 119, -41, -60, -64, 55, 109, -91, 55, 114, -44, 24, 36, -98, 75, 93, 15, -73, -65, -14, 35, -48, -13, -90, -67, 40, 54, 57, -65, 10, 101, 55, -48, -116, 42, 119, -67, -35, 115, -109, -104, -35, 122, -113, 120, 119, 92, -89, -23, -30, -105, -91, 65, 109, -69, 85, -52, 75, -1, -105, 18, -25, 114, 22, -21, 60, 46, -50, 58, 53, -78, -49, 8, -40, -72, 16, 62, -16, -106, 37, -1, 117, -18, 61, 60, -105, 48, 49, -104, 92, 13, 120, -52, 103, -33, 102, 69, -18, 63, 109, -80, -49, -83, 102, -20, 92, 5, -37, -64, 66, -85, 3, 109, 84, -119, 
  -34, 56, 60, -8, 39, -70, 100, 48, -113, 96, -5, -78, 18, 11, 116, -92, 31, -112, 86, -15, 78, -6, 35, -54, -36, 68, -58, -72, -66, 97, -100, 112, -21, -3, 3, 11, -44, -48, 64, 86, 90, 2, 19, -34, -98, 53, -82, -105, 12, 14, -65, -40, -39, -107, -80, 18, -84, 20, -53, 74, 29, -114, -45, 107, 83, -13, -14, 49, 112, 73, -70, 39, 20, -17, 107, 102, 33, -13, -9, -18, 9, -119, -53, -43, 97, 72, -3, -10, -52, 57, 49, -82, -13, 30, -29, -18, 20, 85, -101, 96, -118, 95, 72, -111, -113, 48, 18, 71, 26, 98, -45, -19, 54, 8, -53, 108, -111, -30, -29, 51, -111, -14, -8, -23, -78, -37, -23, -1, 92, -97, -67, -73, -107, 58, 64, 
  -84, -31, 16, 108, 107, 81, -109, -48, -107, 76, -78, 101, -27, 79, 1, -47, -33, -9, -118, -61, 69, 116, -98, 32, -92, 55, 95, 19, 41, -13, 39, -53, 57, 4, -45, -61, -44, -58, -97, -77, 53, -76, -98, 13, 55, -39, 22, -30, -75, 18, 72, -74, -46, 96, -26, -85, -32, 38, -56, 112, -8, -2, -25, -99, 44, 55, 53, 33, -3, 106, -16, 98, 102, 107, 5, -67, 69, -81, -33, -60, -45, 79, 15, -32, -96, -31, -14, 61, -84, -89, -101, 30, -37, 88, 59, -68, 12, 46, -51, -82, -111, 39, -42, 111, -58, -54, -109, 99, 45, -24, -63, 69, -75, 37, -3, 39, 94, 35, 27, -52, 34, -47, -97, 116, 24, 68, -92, 93, 48, 89, -37, 78, 28, -104, 65, 
  21, -11, 87, -124, -49, -21, 22, 15, 103, 25, 90, -110, 26, 25, 114, 47, 4, -33, 37, -26, -97, 110, 95, 87, -11, -73, -31, 66, -96, -7, -76, -120, -12, 50, -81, -32, 49, 104, 8, 32, -63, -125, 22, -42, 88, -121, -66, 0, 81, -32, -40, -99, -82, 103, 55, -41, 104, -96, 15, 20, 34, -123, 107, 10, -91, 78, -51, 53, -90, -90, -18, 9, -55, 1, -28, -91, -12, 19, 10, 24, 92, -96, 7, -53, -81, 88, 41, 81, -44, 108, -107, 79, -14, 90, 108, -72, 57, 51, 80, 78, -13, 79, 7, 11, -19, 57, -25, -22, 107, 91, 76, 49, 73, -93, -99, -49, -82, 85, -72, -106, -11, -10, 20, -22, -62, 98, 104, -49, -103, 18, -5, 43, -14, -121, 59, 
  -119, 104, -19, -88, -83, 93, -22, 35, 87, -109, -91, 73, 81, -88, -93, 103, -116, 100, 100, -41, -85, -113, -17, -98, 28, 114, -100, -110, -77, -57, -60, 94, 93, -50, -75, -106, -47, -31, 67, -106, -116, -67, -36, -5, -104, -47, -86, 10, 6, -71, 94, 39, -56, 67, -7, 11, -93, -3, 92, 96, -112, -62, -83, -34, 113, -2, 20, 23, 68, 118, 97, -95, -120, -37, -63, 27, -43, 22, -6, -79, -75, 86, -10, -7, -63, 24, -114, 81, 37, 28, -64, -15, 83, 57, 27, -11, -47, -71, -11, 76, 69, 14, 73, -32, 39, 16, 5, 1, -46, 45, -42, -65, 30, -14, 93, -45, -32, 76, 79, 79, -89, 117, 24, -92, -14, -83, -52, 89, 76, 60, 19, -1, -28, 112, 115, 
  -33, 70, 32, 5, -35, -20, -47, 23, 85, 48, 67, -85, 84, 6, -29, 41, -65, 85, -123, 50, -101, -66, -20, 41, -82, 23, 85, 48, -10, 57, 12, -115, -117, 119, 58, -33, 100, 112, -83, 102, 52, -78, 53, 23, 27, 79, -113, 100, -4, -95, 57, -21, 64, 73, -54, -3, -6, 30, -114, -4, -32, -117, 42, -79, -35, -10, 114, -99, -24, -43, -18, 10, -1, -63, 80, 23, 6, -48, -1, 31, -52, -43, -74, -97, -19, -26, -76, -89, 86, 69, 88, 16, 41, 0, 98, 22, 83, -15, -21, -56, 26, -15, 34, -27, 109, -113, -38, 91, -42, -24, -62, -81, 72, -14, -56, 68, -93, -5, 47, -16, -100, 100, 114, -46, 118, -33, 30, -92, 101, 98, 94, 99, 3, -36, 49, 
  65, 23, 9, -57, -60, -18, 42, -78, -62, 38, -87, 61, 96, -118, 57, -48, 24, -67, -85, -63, 38, 94, 54, -40, 48, 69, -1, 21, -90, 71, 27, -22, -12, 69, -69, 105, -82, -15, 46, 20, 21, -108, -103, -4, 86, 25, 33, -60, 75, -34, -82, -68, 9, -13, 31, -18, 98, 56, 52, 111, -11, 109, 13, 85, -23, 75, 104, 11, -47, 81, -46, 61, -11, 113, 113, 96, 63, -96, -7, 12, 85, -113, 0, -84, -11, -39, -29, -39, -99, 52, 101, -27, -37, 96, -10, 92, 27, 112, -116, 5, 119, 58, 17, -55, -110, -49, -117, -96, 78, 90, -72, 102, -105, 52, -8, -14, 35, 30, 68, 117, 3, 108, 56, -92, 48, -39, 85, 7, -97, 65, 44, -16, -121, 86, -35, 
  -70, 7, -21, 21, -65, 101, -98, 62, 112, -53, -6, 94, -115, 58, 37, 98, -2, -36, -112, -70, 28, 76, -65, -67, 29, -40, -6, -2, -6, 18, 87, 71, -29, -110, -85, -40, -39, 78, 29, 96, 87, 88, 57, -3, 12, -5, -112, -2, 73, -98, -119, -109, 85, -22, 43, 36, -34, -28, 3, -20, -43, -52, -91, 70, 86, 109, 97, -79, 71, 51, -77, 30, 1, -93, 100, 26, -33, 48, -29, 57, 91, -22, 77, -110, 84, 104, 21, 15, -29, 91, -56, -24, 55, 35, 99, 117, -59, -1, 25, 76, -10, -85, 23, 115, 59, -85, -55, 53, -13, -105, -89, -14, 50, 117, -72, 120, 88, -8, -57, -112, -22, -3, 27, 100, -82, -59, -25, -76, 3, -26, 86, -40, 93, 115, -29, 
  102, 107, -20, 8, -33, -13, 85, 90, -42, 96, -98, -123, 83, 67, 26, 42, -38, -64, -1, -5, 24, 87, -118, 109, -24, 96, 116, 78, 47, -64, -106, 117, -29, -110, -79, 63, -75, 39, -68, 40, -7, -7, -8, 93, -120, 106, -119, 31, -97, 63, 35, 103, -24, -32, -61, -46, 77, -82, -85, -88, -112, 117, -94, 79, 50, 51, 64, 117, 56, 74, 104, -63, 88, 34, -20, -72, 100, 71, -53, -113, 114, 67, -35, 70, 76, 56, -80, -26, 94, 45, 88, -39, -71, 112, 38, 74, 62, -105, -57, -18, 27, -98, -103, -21, -113, 41, 108, -88, -46, 21, -49, -13, -62, -23, -122, -14, -87, 81, -3, -13, -14, -49, -61, -77, -28, -89, -31, -54, 101, -33, -118, 36, -77, 100, -97, 
  113, 24, -71, -89, -5, 78, -100, 33, 96, 36, -100, 18, 49, 106, 105, 0, 57, -91, -16, 29, 15, 25, -120, -29, -102, 38, 65, -30, -17, -8, 19, 38, 104, -54, -7, -41, 74, -16, 12, 104, -42, -24, -50, 90, 46, -45, 79, 93, -4, 1, 84, 100, 43, 96, 101, -93, -114, -112, -124, -111, -114, -116, 42, -6, 93, -11, -89, 5, 16, -9, 75, 32, -53, -95, 87, 66, -120, 77, 112, -108, 95, -91, -94, 114, -114, -110, 76, -57, 101, -1, -76, 60, 91, -94, -47, 36, -113, -4, -35, -95, 4, -54, 105, 33, -47, 54, 111, 7, 54, 104, -90, 3, 69, 37, -20, 79, 10, 72, 33, -113, -54, -47, 76, 96, 118, 50, 108, 7, 30, -96, 20, 26, 94, 72, 109, 
  42, 31, -36, 52, 17, -126, 112, 18, 37, 84, 20, 74, 90, 94, -58, 104, 83, 31, -93, -4, 44, 65, -113, -74, -25, -106, -26, -42, 15, 45, 100, -123, 7, -90, -96, 93, 72, 28, 90, 61, 110, -32, -91, -101, -44, -96, 72, -51, 56, 69, -64, 93, -26, -82, 11, 104, 39, -117, -71, 43, -68, 107, -47, -120, -65, -84, 97, 2, 27, 110, 1, -29, 18, 11, 93, -55, 17, -62, -49, -29, -114, -23, 37, 52, -9, -125, 70, -24, -55, -5, 53, 112, -3, -90, 2, -79, 100, 18, 106, -18, 56, -13, 60, 29, -56, 105, 48, 101, -65, -24, -51, 48, 17, -73, -56, 73, -37, 97, -106, -61, 111, 94, 20, -7, -41, 65, 34, -84, -10, -116, 21, -10, 40, 0, 73, 
  28, 111, 106, -93, 35, 24, -100, -16, 41, -42, 67, 87, 80, 55, -33, 16, -38, -7, 21, 96, 81, -23, 24, 67, 34, 5, 125, -119, -97, 53, 121, 20, -27, 107, 120, -14, -57, 28, -87, 7, -62, -58, 112, -36, 99, 121, -81, 58, -83, -99, -48, -29, -35, -30, 86, 107, -9, -61, 78, 98, 31, -21, -2, -88, 63, -1, -71, -31, -33, -42, 8, -100, 121, 61, 116, 49, 52, -52, 1, -109, 33, -42, -37, -105, 118, -35, -84, 1, 87, 57, 63, 7, 37, 72, -1, 47, 62, 53, -50, 54, 69, -43, -9, -71, -45, -106, 17, -5, 21, 109, 38, 114, -8, 50, -82, -74, 85, -33, 3, 61, -44, -86, 97, 34, -71, -60, -104, 107, -88, 62, -19, -72, 14, -88, 93, 
  -99, 45, 18, -48, -75, -58, -69, 43, -21, 74, -12, 94, 23, -19, 16, -48, 23, -2, -89, 31, -96, -106, -9, 60, -22, 5, 114, 31, 119, 8, -34, 118, -19, 60, -86, -55, -16, -18, 38, 15, -53, -95, 99, -109, -57, 27, 106, -11, -22, 93, 39, 119, 25, -96, 102, 20, -37, -98, -96, -92, 102, 6, 24, -26, -36, -18, 101, -78, 86, -76, -3, -115, -46, -93, -55, 46, -74, -113, 40, -1, -66, 2, 27, -72, 80, 92, 90, -8, -58, -85, 88, -30, -69, 108, -39, 95, -27, 85, 105, -79, -27, 43, 48, -24, 50, -98, 33, -29, -111, 32, 84, -88, -30, -12, -21, -116, 62, -32, 27, -112, -63, 13, 33, 79, 62, 93, -113, -86, -110, -91, 55, -117, 3, -93, -89, 
  65, 35, 78, -68, 17, 22, 38, 14, 47, -51, -58, -68, -118, 43, 108, -17, -17, -102, -28, 78, -77, 56, -53, -82, 91, 20, -114, -107, -71, 108, 87, 36, 99, 23, -58, -49, -23, 69, -87, 63, -118, 40, -71, 97, -67, -79, -71, 112, -89, 95, -120, -63, 3, -32, 32, 62, 38, 58, -51, 14, -115, -61, 100, 67, -49, 71, 93, -33, -101, 62, 48, -113, -113, -71, -11, -31, -3, 47, -73, 62, -67, 95, -98, 9, -2, -93, -100, 14, -67, 75, 109, 45, 120, -21, -79, 36, -29, 19, -34, -83, 2, -102, -97, -23, 33, -100, -53, 7, 46, -58, -75, -9, -21, -117, -51, 79, 11, 8, -82, 35, 118, -12, -78, 1, 49, -98, -35, -4, 97, 86, 42, -3, 119, 30, 106, 
  80, 111, 15, 26, 65, -39, -53, 120, -39, 41, -77, -90, 74, 109, 79, -37, -68, 40, 108, -111, 0, 85, 99, -103, 62, -75, -20, 107, 33, 104, 105, -61, -4, 102, -15, 114, 73, -78, 98, -13, -56, 1, 35, 39, 109, 37, -100, -89, -122, -71, -60, -65, -13, -24, 58, 117, 96, -11, 72, -35, -114, -3, 10, -72, 109, -101, -16, -4, -79, 51, -34, -75, -65, 97, -1, 68, -56, 48, 105, 47, -91, -37, -102, -106, 62, -30, 7, -26, 1, 30, -71, 113, -22, -70, -92, 1, -53, -40, -8, -83, 36, -47, 118, -104, -28, 52, 110, 15, -107, -13, 2, 87, 39, 114, -35, 86, 57, -108, -64, -75, -35, 58, -102, 7, -40, -81, -17, 116, 65, 63, -110, -46, -30, 43, -11, 
  25, 51, 98, 84, -74, -19, -21, -37, 116, 32, 1, 30, -70, -124, -113, 43, 0, 100, 38, -12, 40, -60, 58, 23, 68, 43, -14, -41, 55, -13, 22, 92, 12, -89, -66, -50, -59, 38, -64, 60, -40, 87, -114, -113, -93, -71, 100, -11, -29, 11, -55, -105, -24, 70, 13, 73, -41, 57, -59, -7, 100, 95, 56, -3, -106, -59, 103, -103, 19, -19, -93, 39, -79, 80, -26, 26, -117, 88, 68, 87, 42, -68, 31, -55, -57, -19, -69, 34, 97, -10, -89, 50, -124, 66, 100, -121, -120, 19, -121, 15, 21, 100, 74, 64, -125, -42, -123, -49, 24, 34, 4, 48, 11, -51, 3, 104, -77, 33, -124, -79, 62, -91, -30, 56, 50, -18, 6, 109, -73, 96, 86, 114, 44, -66, -101, 
  -119, -6, 37, -8, -64, 75, -13, 111, -3, 101, -61, 111, 74, -30, 77, -106, 74, 99, -115, 11, 95, -1, 74, 97, 120, -21, 13, 83, -58, -84, -54, 110, -37, -5, 40, -29, -65, 40, -35, 119, -110, -36, -12, 118, -108, -106, 43, -72, 8, -57, 48, -27, 20, -113, -111, -7, 86, 36, 94, -110, 62, 12, 18, -39, -3, -20, -17, -28, 54, -112, 23, 16, -70, -85, -94, -6, 76, 59, -82, -114, -117, -23, -6, -66, -60, -47, 69, -45, 105, -8, 39, -77, -57, 36, -14, -88, 104, -104, 39, -6, 90, -51, -35, 61, -2, -85, -94, -72, 54, -33, 4, 50, 28, -84, 110, -107, -43, 24, 25, -73, -108, -18, -40, 60, 82, 97, 60, -116, 107, 33, -5, 106, -107, 105, 120, 
  114, -40, -99, 105, -10, -65, -81, -46, -97, 44, -64, 62, -111, 108, -19, -16, -63, -59, -87, 10, -50, 84, 118, -19, -8, -67, 48, -58, -49, -7, 47, -49, 115, 60, 108, -61, 10, 57, 83, 16, -28, 58, -99, 86, 74, 69, 101, 42, -37, -41, -12, 109, -54, 12, 115, -56, -113, -18, 115, 83, -2, 45, -58, 92, 8, 29, -24, 4, -103, -19, -42, -83, 63, 97, 46, 89, -31, 91, 120, 32, 6, -22, -85, -32, 27, -105, 59, -44, 21, -108, 25, -95, -47, -21, 42, -21, -89, 36, 17, -1, 63, -57, -42, -16, -112, -73, 63, -108, 100, -49, -76, 64, 85, 98, 38, -76, -99, -60, -118, -113, 34, 68, -120, 60, -74, -38, 86, -23, 1, -20, 43, 6, -56, -101, -22, 
  100, 115, 62, -103, 81, 58, 28, -65, -24, -95, -49, 3, 58, -31, -114, -26, -42, 73, -18, -67, 94, -94, 57, -44, 95, -96, 98, 81, -110, 4, -72, -98, -118, 29, -49, -12, -101, 87, 98, 28, 0, -5, 115, 36, -21, -24, 112, -82, -84, -91, -9, 97, -26, -64, -83, -64, -103, -42, -72, -41, -26, 83, -58, -115, -50, 15, -60, 87, -113, -101, 40, 101, 86, 105, 38, 1, -30, 32, -9, -3, 100, 46, 78, -85, 45, -86, -112, -39, 28, 108, 112, 46, 1, 85, -68, 52, -85, -19, 115, 30, -18, -120, -33, -19, -122, -19, -96, 33, 92, 35, 93, -28, 18, -27, -2, -111, 78, 118, -108, -77, -66, -97, -17, 53, 56, -11, -65, 83, -91, -35, -15, -1, -41, -109, -40, 
  4, -40, -97, -24, 3, -112, -20, -24, 25, -68, 40, -10, 69, -32, 46, 36, -31, 71, -66, 113, -100, 9, -72, -79, -91, 100, 66, -28, -21, -71, -12, -84, 52, 87, 83, 51, -62, 25, 39, -59, 88, -29, 26, -57, -86, -50, 75, -8, 14, 44, -115, -86, -69, 89, -78, 60, 60, -24, 23, 18, -68, -36, -112, 60, -77, -52, -22, -102, 73, 91, 94, -111, -89, -63, 85, 118, -78, 51, -19, 79, 52, 98, 79, 94, -27, -102, 72, 96, -60, 17, 119, 112, 49, 107, -51, 11, -66, -52, 90, -112, -115, 44, -86, 87, -44, 83, 102, 112, -88, 100, -1, 98, 116, -95, 73, 22, 98, 93, -25, 107, 121, 75, -19, -112, 79, 115, 114, 63, -41, 53, -87, 41, -95, 121, -71, 
  -24, -28, -94, 55, -45, -115, -50, 90, 48, 60, 31, 66, -91, -74, -33, 78, -30, 76, -117, -70, -66, 31, 59, 103, 111, -10, -88, 49, -63, 105, 103, 21, -32, 37, 114, 39, -67, 108, 54, 106, -87, 6, -75, 63, 29, 75, -17, 99, -84, 65, 49, 38, -74, -2, -19, -41, 105, 62, -35, 14, 9, -89, 84, -86, 41, -6, -96, -4, -47, -15, 75, -107, -51, -16, 74, 35, 85, -32, 66, -90, -9, -97, -101, 98, 88, 68, -91, -84, -38, -29, 38, 28, -14, -26, 71, -95, -97, 41, -21, 20, -45, 91, 25, 31, -88, -86, 54, -28, -80, 79, 111, -111, 90, -92, -11, -78, -70, -115, -38, 87, 113, 112, -36, -18, 9, -69, 69, -53, -113, 108, 119, -102, 31, -46, -4, 
  54, -41, -21, -25, 27, 26, 91, 109, -85, -115, 86, -32, -16, -90, 84, 50, -86, 9, 51, 25, 63, 56, -116, -87, -2, -9, -80, 116, 13, -117, -74, -101, -5, -101, -100, 48, -42, 63, -47, 102, -81, -57, 111, -98, -59, -79, 5, 15, 96, -65, 60, -14, 75, 48, 41, 73, -109, -94, -66, -106, -42, -54, 66, 6, 92, -47, 12, 6, 26, -120, 4, 41, 23, -82, 1, 85, -22, -92, 87, -29, -4, 1, -92, -48, 7, 105, -83, -106, -116, -95, -74, 58, -85, 94, 105, 115, -106, 73, 22, -76, -81, -17, 76, -118, 95, 74, 58, -38, -107, 119, -16, -95, -75, -111, 49, 89, 66, 22, -102, 75, 120, -38, -6, 77, -36, -38, -9, -42, -81, -3, -80, -47, 107, -4, -14, 
  -72, 104, 80, -56, -38, 28, -52, 65, 23, -38, -12, 65, 56, -15, 72, 76, -61, 57, -61, -110, 88, 23, -84, -85, 17, -2, 95, 70, -92, 110, -97, 70, 63, -10, -115, -66, 119, -83, -24, -30, -11, -119, 70, -115, -98, 103, 59, -119, 112, -114, -88, 96, 54, -71, -30, -61, 12, -74, 41, 83, -30, 44, -62, 51, -6, -111, -40, 69, -14, 4, 34, 42, -105, -63, 66, -66, -98, -79, 66, 101, 2, -47, 104, -87, -44, -46, 44, -26, -53, 18, -97, -16, -62, -37, -84, 104, 29, -101, 80, 117, -52, -63, -45, 48, 71, 14, -105, 103, -58, -48, -17, 101, -93, -47, -18, 48, 46, -23, -91, 12, -61, 44, -21, 27, 39, 35, -75, 16, -19, 26, -50, 49, -43, -117, 117, 
  -1, -3, 108, -88, -103, -59, 81, 26, -118, 29, -53, -67, -9, 102, 111, 6, -69, -43, 53, 48, -108, 56, 26, 102, -105, -61, -94, 30, 19, 79, 46, 23, 15, -6, 84, -25, 85, 27, -34, 109, -70, -77, 76, -4, -91, 37, 67, -83, -83, 91, -18, -87, 2, 95, -44, -74, 32, 58, -11, -71, -20, -55, 27, -74, 61, 115, 89, -98, 15, -50, 74, 81, -78, -20, 6, 2, 108, -89, 21, -16, -53, -58, -9, 36, -44, 45, -96, 8, -66, -81, 76, -7, 65, -50, -70, 109, 7, -48, -61, -37, -24, 23, 112, -6, -57, -92, 61, 85, 61, -49, -119, -15, 110, 76, -22, 6, 84, -5, -116, -64, -114, 27, -7, 111, 79, -24, 12, 87, -65, -69, -62, -48, 4, -67, 78, 
  -94, -50, 110, -52, -28, -109, -99, 43, -104, -110, 109, -79, -30, -49, 94, -39, -105, -36, -97, 114, -30, 80, -70, -92, -114, -64, -95, 35, 102, 86, -12, -60, 68, -70, -12, 2, -44, 111, 54, 46, -77, -103, 85, -57, -81, 19, 3, -74, 120, -12, -58, 41, 94, 1, -84, -15, 38, -112, 16, -35, 95, -24, -80, -79, 59, 13, 31, -79, -14, -72, 57, -106, -87, -116, 68, 93, -91, 88, 115, 69, 24, 88, -106, -49, 38, 103, -99, -62, -41, 34, -77, 55, -118, 77, -34, 15, -51, 111, -90, -75, 72, -29, 21, -24, 104, 116, 22, 42, -51, 89, -41, -31, 16, -72, 107, -115, -16, 108, 74, -31, 30, 101, 6, -94, 98, -24, -15, -115, -112, 37, 31, -119, -78, 20, -44, 
  -97, 44, 89, -48, -27, 72, -119, 94, 5, 75, -113, 77, -89, 8, 75, 66, -27, 43, 101, 115, 44, -92, 70, 44, -48, 100, 76, -114, -81, -31, 35, 68, 118, -43, -51, 41, 16, 61, 36, -52, 27, 95, -20, -37, 6, 68, 118, 27, -64, -39, 16, -53, 53, -25, 106, -102, 84, -54, 40, -60, -41, -29, 107, -74, -10, 33, -62, 32, 67, -105, -20, 84, -39, -70, -68, -1, -71, 67, 85, -4, -104, -27, 23, -67, -12, -92, -45, -57, -80, -88, 49, -33, -43, 43, 35, -49, -1, -29, 95, 4, 59, 33, -106, -83, -68, -43, 72, -20, 97, 115, 19, -13, 63, 93, -10, 107, 29, 29, 41, 91, 111, 90, 68, -8, -39, 80, -63, -112, -110, -70, 98, 48, 1, -34, 21, 
  -72, -4, -44, -5, -53, -36, 68, 104, -59, 16, -40, 68, 90, 103, -20, 65, -39, 97, -108, 23, 30, 1, -46, 34, 43, 98, -63, -67, -38, -76, -39, -76, -98, 112, 83, -118, -120, -88, 24, 4, 16, -115, 61, 36, 68, -48, 14, 5, 116, 9, 15, 46, 68, 18, 108, 96, -111, -92, 42, 108, -57, -54, 114, -41, -116, -120, -85, -18, -62, 111, -88, 94, -89, -4, -37, -16, -36, 106, -97, -67, 4, 107, -15, 31, -22, 29, 17, 10, 41, -76, 118, -97, -117, 68, -47, -1, -118, 74, 15, -70, -16, 74, -98, 63, -106, -87, -65, -16, -41, -117, -112, -118, 93, 116, 108, -40, -107, 24, -106, 78, 74, -21, 80, 105, 44, 31, -28, -21, -68, 19, 67, -47, -62, 111, -48, 
  -27, -106, 93, 93, 38, -113, -59, 38, -2, -66, 84, 98, 69, 86, 19, -119, 93, 54, -42, -66, 115, 48, -38, 45, -110, 20, -4, 66, -92, -22, 103, 73, 22, 86, -73, -96, 22, -45, -52, -100, -90, 1, -56, 43, 34, -31, -26, 55, -50, -98, 74, 59, 106, -111, 12, 60, -77, -54, 95, 18, -16, -29, 23, -94, 56, 54, 93, 87, 0, 56, 31, -32, -89, 51, 21, 89, -1, -70, -67, 60, -125, -54, -35, 72, -20, 67, 54, 51, -6, 89, 33, -50, -4, 9, -99, 47, -31, -97, -103, 100, -76, 113, 79, 70, -112, -73, -65, 98, -96, -112, -122, 95, 50, -122, 112, 104, -25, -77, -19, 74, 99, -51, 37, 2, -91, 30, -13, 64, 0, 63, 76, 37, -103, -23, 62, 
  -15, 76, 38, -81, 56, -64, 74, -74, -75, -38, 47, -107, 103, 118, -30, -112, 18, 43, 116, 115, 34, -69, 43, -51, 3, 5, 82, -89, -107, 12, 37, -89, 9, -115, -79, 34, -106, 40, 111, 30, -2, -93, 9, 115, -77, -108, 58, -76, 114, 17, 70, 89, 80, -58, -23, 106, -75, 83, 79, 30, -26, -17, 23, 95, -60, -46, 0, -36, 57, 60, 47, 101, 98, 106, 23, 13, 23, 15, -116, -103, -16, 35, 83, 26, 37, -30, -44, -34, -52, -108, -4, 7, -79, -19, 85, 110, 102, -77, 25, -98, -29, 113, -18, 93, 112, 44, 25, 103, -98, -96, -23, 19, 21, -47, -30, 38, 65, -12, -92, 60, 89, 92, -98, -88, 95, 90, 35, -32, 82, -73, -74, -101, -38, 92, 88, 
  -84, -117, 7, 96, -97, -21, 101, 91, -108, 25, 17, 87, 91, -6, 110, 65, 31, -60, 22, -15, 3, -59, 82, -21, -119, 75, 63, -75, 78, 40, 55, 81, -115, -37, -70, 21, -32, -43, 35, 96, 5, 21, -19, 28, 65, -26, 86, 84, 35, -74, -79, 44, -57, -94, -115, -102, -106, 10, 86, -99, -125, -94, -97, 2, 64, -7, -103, 13, 65, 4, 106, -108, 109, 90, 87, 91, 28, 116, -43, -56, 53, -80, 95, -95, 32, 23, -50, 25, -113, -55, -106, 87, -107, 26, -117, -123, -12, 103, 96, -36, -70, 79, 30, 82, 114, -82, 77, -94, 53, 12, 12, -57, 91, -82, 22, 94, 106, 56, 81, 58, -65, -40, 96, -53, -97, -27, 22, 106, -83, 56, 45, 11, 40, -108, 110, 
  49, -78, -27, -44, -16, -70, -71, 106, -47, 33, 76, -29, 61, -64, 49, -104, -59, -34, 72, 47, 68, -62, -114, -78, -109, -86, 31, -116, -91, -69, 34, -81, 92, -72, -82, 79, 16, 106, 122, 113, 18, -6, 52, 66, 32, 106, -64, 27, 58, 105, -43, -101, -85, -62, 66, 120, 48, -98, -48, -59, -111, 48, 112, 38, 42, 19, 98, -9, 7, 106, 36, -98, -24, 33, 81, -71, -8, 69, -20, 80, 62, -20, 10, 84, -52, -79, 65, 79, 118, -10, -107, -20, 19, -29, 67, -96, -83, 35, -106, 119, 67, -62, 77, -91, 110, 76, -25, -29, 112, 34, 23, 21, 12, -33, 89, 122, 102, -1, 56, 113, 92, -115, 53, 32, -108, -37, -79, -14, 115, 61, -96, -18, 96, 96, 83, 
  10, -91, 109, -33, 106, -50, 81, -48, -5, 68, -28, -107, -11, -109, -41, 85, 112, 21, -71, 4, 78, 59, -103, -94, 69, -74, 105, -37, -70, 81, 28, -50, -62, 112, 98, 8, 69, 103, 41, 78, -2, -28, 120, 109, 3, 107, 16, -19, -78, 18, -55, 12, -38, 70, 50, -100, -95, 63, 81, 81, -47, -111, 60, -79, -15, -95, -36, -60, 104, 97, -24, 8, 31, -87, 20, -51, -32, -67, 20, -99, 112, -105, 108, 59, 19, 75, -27, 117, 64, 81, -65, 120, -102, -118, 6, -106, 24, -17, 4, -92, -73, 103, -38, 118, 0, -37, -19, -67, 118, -4, -102, -35, 99, 4, -17, -101, 64, -7, 28, -105, 71, -83, -98, -13, -44, -16, -117, -22, 17, -95, -4, 22, -77, 3, 112, 
  -119, 24, 105, -39, 68, -116, -75, 9, -116, -16, 76, -19, 70, -1, 21, -23, 65, 72, 96, -65, -108, 23, 30, 58, 32, 47, -120, -54, 109, 88, 1, 89, 98, 56, 100, -9, 15, -6, 111, 110, -86, 15, -29, 63, -61, 90, -77, 65, -70, -44, 101, 59, 70, -113, -30, -119, 24, -19, 1, 44, -22, -35, 15, 104, -55, -19, -100, -118, -51, 108, 107, 71, -76, -73, -83, -109, 74, -12, 75, 54, -71, 68, 12, 69, -28, -100, 41, -75, -121, -3, 67, 13, -81, -53, -12, 62, 111, -2, -121, 28, 73, 110, -73, 103, -92, -118, -68, -31, 44, -39, -55, -19, 18, 31, -88, -76, -119, 1, 68, -82, 49, 104, 93, 22, -18, -32, -13, 45, 20, 61, 12, 83, -118, 7, 115, 
  -5, 35, 63, -107, 69, -15, -67, 118, -79, 27, -60, -89, 0, 14, -19, 7, 75, 39, -120, -19, 44, 17, -16, 47, 36, 75, -14, -11, 21, 53, -95, 22, 69, 110, 9, 76, 90, -69, -12, 12, -92, -31, -4, -101, -93, 1, 14, -27, -97, -16, 85, 14, 37, 101, -44, 89, -111, -96, 76, -9, 50, 44, -61, 69, -107, 26, -81, -16, -5, 57, 42, -71, 65, 47, 66, -110, -57, -89, 52, 58, -13, -20, -49, 31, -67, -3, -10, -52, 108, -69, 77, -44, -99, -60, 111, -54, -46, -104, 20, 88, 36, -91, 35, 35, 55, 109, -9, 31, 104, 18, -53, 67, 42, -15, 13, 76, -58, 3, -79, 100, 68, 10, 52, 66, -66, -80, -29, -44, -61, -9, -92, -96, -85, -20, 18, 
  22, 19, -36, -35, -4, -93, 101, 74, -37, -115, 98, 93, -47, 38, 64, 48, 42, 52, 87, -103, 37, 104, 120, -55, -88, -118, -86, -60, -17, 18, 20, 121, -16, -52, 61, 115, 80, 1, -102, -15, -6, 23, 9, -107, 72, -59, 19, -95, 18, -34, -5, 97, 113, 109, -52, -42, 84, 122, -29, -20, 61, 14, -84, 53, -96, 53, 33, -41, 98, 111, -36, -37, 81, 46, 22, 6, -95, -76, 96, -103, -86, -84, 80, 114, 20, -7, -23, 89, -21, 11, -49, -78, -10, 109, 34, 115, 67, -43, 69, 100, -7, 44, -61, 94, 31, 52, 57, 123, -56, -110, 9, 66, 61, 13, 29, -32, 46, 118, 118, -50, -37, 16, 94, -25, -16, -64, -19, -86, -23, 56, 4, -70, 96, 9, -83, 
  -35, -38, 1, -12, -62, -34, 109, 23, 35, -19, 7, -47, -8, -89, -69, -113, 115, -119, 56, -98, 29, -30, 65, -57, -78, -25, -24, 107, -13, -30, 79, 54, -67, -71, -63, -33, 9, -69, 92, -110, -96, -83, -4, 48, -89, -38, 58, 71, 72, -22, 0, -13, -113, 17, 43, -62, 66, 23, -9, -41, 6, -45, 18, 110, 102, 48, -53, 82, 6, -44, 98, -50, -11, -87, 2, 19, -102, 110, 120, 89, 32, 103, 56, -19, 29, -98, -58, 18, 95, -107, -78, -14, -16, -15, 95, 101, -52, -23, 9, 59, -80, -11, -29, 43, 18, -52, -74, 97, -80, -88, 82, 14, 48, -55, -35, -93, 97, 46, -1, -17, 82, 5, 1, -34, -76, -6, 59, -103, -13, -102, -56, 87, 12, -3, 56, 
  112, -11, 39, -33, -54, -83, -55, -105, 87, -12, 42, 45, -115, 120, -25, 11, -27, 110, -45, -47, -21, -94, -3, -106, 78, 3, -63, 63, -86, 7, 17, 79, -35, 39, -63, 69, 42, 119, 35, -102, -117, -89, -29, 24, 60, 110, 122, -96, 29, 84, -53, -75, 22, 15, -80, -75, -74, -71, 28, -23, -5, 44, 38, -108, -24, -110, 65, 61, -47, -4, -60, 72, 5, -57, -116, -9, 72, -73, 78, 64, -79, -4, -94, 47, 51, -121, 76, 78, -105, 111, 68, -13, 115, 38, -29, 0, 118, 19, 93, -31, -9, -82, -30, -24, 90, -28, -11, -37, 62, -74, -68, -36, -78, 68, 76, -79, -82, 11, 47, 59, 53, 40, -86, 2, 67, 43, -24, 74, 54, -71, -54, 76, -3, 101, 72, 
  -35, 41, -55, 50, 85, 7, 56, -38, -105, -41, -4, -97, 116, -57, 76, 3, -88, 100, -116, -20, -50, 108, 114, 81, 6, 98, -2, -18, 9, 51, -70, -23, 89, -49, -43, 76, -23, -58, 104, 58, 113, -84, 25, -82, -116, -105, 99, 115, 30, 50, -50, -12, 76, 39, -2, -77, -23, -9, 69, 56, 90, 34, 16, 87, -2, 11, -102, -119, 90, -3, -74, 59, -44, 94, 74, -89, -93, -18, -93, 37, 59, 56, 102, 36, 28, 3, -24, 14, 27, 115, 107, -96, -51, 113, 36, -45, -7, 71, 8, 110, -78, 117, -113, -23, 56, -52, -23, 79, -3, -13, -69, 57, -15, -89, 101, -74, 34, 4, -70, 10, -22, 26, -94, -18, 87, 36, 110, -38, 33, 45, 74, -71, -92, 114, -50, 
  75, 34, -97, -63, 61, -42, 6, 9, -6, 100, 99, -94, 86, -7, 61, -84, -24, 90, -102, 67, 35, -37, -59, -105, 106, -2, 43, -66, 51, -6, 75, 13, -27, 6, -46, -27, -14, -115, 80, 51, -58, 41, -110, -53, 59, 44, 53, -54, 59, 15, -61, -108, -24, -107, 105, 99, -104, -41, -100, -36, 127, -113, -2, 75, 110, 91, -21, 66, 3, -33, 115, 116, 5, 85, 88, 15, -33, 38, -1, 87, 70, -105, -35, 124, -80, -54, 114, 119, -22, -14, -2, 76, 83, -4, -64, -36, 100, 33, -70, -22, 18, -11, 111, 62, -94, -109, -6, 84, -94, 92, -75, 53, 13, -44, -65, -5, -16, -22, 67, -17, -48, -115, 120, -106, 34, -106, 121, 16, -40, -15, 94, 56, -31, -86, 76, 
  -106, 39, 84, 70, -10, -17, -97, -62, 28, -54, 21, -22, 112, -36, 22, 95, 85, 114, -106, -32, -33, -4, 46, 58, -88, -110, -103, 75, 63, 77, 70, -92, 58, 66, -6, 64, 63, -110, 38, 29, 42, 94, 52, 54, -74, -64, -33, 2, 66, 73, -12, 74, 10, 119, -107, 84, 78, 67, 123, -14, -13, 114, 41, 10, 115, 88, 76, -28, -111, -86, -65, 74, -107, 85, 108, -68, -47, 30, 35, 118, -54, -19, -37, -35, 102, -97, 44, -37, -18, -97, -73, -22, -10, -54, -70, 31, -67, -54, 5, 54, -21, -93, -79, -112, 65, 39, 102, -7, -109, -51, 53, -54, -92, -95, 64, -10, -7, 87, 37, -55, 124, 84, 9, 13, 88, 43, 5, 121, -87, 116, 121, -35, 2, 72, -14, 
  87, 50, -126, -1, -30, -52, 97, 14, 86, 96, 52, -98, 46, -84, -10, -89, 109, 33, 35, 5, -76, -70, -20, -48, 15, 64, 87, 13, -53, -106, -85, -3, -91, -43, -58, -95, -20, -106, 30, 11, 10, 45, -36, 91, 35, 6, -87, -27, 42, 107, -62, -48, 71, -23, -36, 44, -74, -33, -33, -123, -7, -4, 12, -67, 82, 5, -43, 74, 85, 42, 106, -79, -11, 23, -59, 115, -54, 8, 20, 96, -84, -110, -16, 95, -117, 0, -101, 20, 37, 112, 19, 45, 45, 60, 84, -43, 34, 65, -18, 10, 2, 29, -98, -42, -123, -26, 37, -8, -121, 17, 103, -75, 31, -61, -44, -58, -117, 60, 3, 74, 5, 43, 19, -23, 91, -18, 13, 60, -108, 7, 61, -43, 100, 61, 66, 
  77, 57, 3, -106, -114, 43, -93, -2, 115, 26, -91, -116, 85, 1, -117, 27, 30, 68, 7, 22, 24, -115, 56, 96, 54, -121, 16, -43, 4, 53, 14, 87, 74, -123, 79, 56, -16, 10, 31, -76, -122, -101, 73, -50, -97, 112, 113, -105, -13, 57, -72, -60, 8, 39, 54, -18, 99, 53, -14, -78, -90, -36, 70, -3, 4, -39, -103, 84, -17, -83, -73, -112, -50, -27, 72, -85, 105, -49, 50, -20, -93, 86, 55, -14, -34, 92, -63, 53, -30, 42, -19, -75, -20, 58, -122, -41, -116, 72, 58, 21, 29, -52, 78, -31, -101, -87, 54, -8, -3, 58, -18, -70, 34, 16, 99, 111, -99, 71, 8, 63, -72, -49, -29, 56, -9, 24, -13, -51, 62, 69, 27, 96, 53, -17, 107, 
  20, -67, 13, 92, 86, -48, 43, 43, 109, -26, -44, -30, -50, 71, -71, 16, -27, -62, -45, -54, -5, 119, 68, -29, 65, -104, -70, 86, 22, 72, -44, -103, 112, 22, -49, 97, 19, -23, 15, -55, 56, 97, 64, -8, -79, 80, 73, 113, -89, 62, 116, 117, 33, -18, -55, 38, -52, 79, 6, -76, 117, 7, -48, -72, 26, -55, -44, -20, 31, 23, 15, -69, -98, 64, -5, 0, 61, -28, 57, 123, -55, -60, 18, -64, -31, 93, -35, -82, 73, -12, -9, 10, 14, 88, -23, 14, 68, -64, 86, -114, 105, 95, 24, -12, 99, 28, 59, 53, -25, -117, -2, 1, -49, -88, -79, -77, 117, 40, -70, -92, -39, -78, -2, -72, 47, 16, 37, 102, -59, 44, -26, -25, -23, 10, 45, 
  -42, -11, -25, 104, 83, -103, -80, -32, -19, -10, -45, -15, -20, 95, -59, 23, 75, -16, -80, -45, 72, 120, -34, 10, -82, 105, -106, -11, -37, -60, -4, -27, -68, -46, 122, 79, -34, 67, 97, 31, 100, -21, -91, 118, 47, 103, -95, 108, 67, -66, 20, 72, 99, 62, 29, 125, 28, -98, 63, 121, 3, -25, 6, 42, 115, -49, -40, 81, 22, 73, 11, 29, -79, -58, -103, -46, 21, 17, -1, 64, 79, 79, 46, 27, 13, 43, -109, 1, -26, -55, 86, -14, 25, -21, -117, 78, 90, -63, 83, -76, 58, 64, -116, 36, 36, 50, 110, -96, 18, 121, -2, 63, -114, -59, -111, -79, -74, -86, 108, -89, 106, -6, -111, 22, 116, 78, -109, -45, 89, -64, 75, 2, 59, 9, -27, 
  52, 21, -8, -66, 99, -30, -12, 83, 47, 108, -24, -77, 119, 80, 80, -65, 43, -42, -113, 42, -85, -116, 75, 110, -37, 77, 84, -5, -16, 101, 109, 36, 102, -76, -16, 120, 20, -110, -7, 81, -22, 4, 60, -99, 31, 106, 51, 6, -23, 39, -77, 111, -110, -16, -115, 44, 107, -104, -32, 83, -4, 43, 7, -91, -55, -66, 14, -109, 32, -56, 90, -24, -25, -40, 34, 43, 26, 95, -90, 31, 23, -8, 42, -52, 97, -6, -2, -41, -27, -46, 108, 25, -85, 40, -116, 72, 9, 60, 82, 96, -80, -15, -46, 58, 41, -22, -14, 86, 19, 8, -47, -66, -61, 15, -52, 63, -58, -7, -34, 62, 94, 51, 41, -102, -68, 35, 19, 121, 19, -27, 82, 47, -25, -79, 97, 
  46, -7, 115, -125, 109, -107, 92, -3, -102, 48, -41, -37, 67, -103, 67, 31, 73, -91, 91, -86, -62, 60, 61, -26, 72, 13, -93, -79, 44, 110, -77, 54, -66, -115, -68, 32, -104, -48, -1, -62, -45, -103, 38, -6, 95, -33, 77, 88, 86, 93, -116, 47, -43, -61, 105, 107, -101, -65, 23, -72, 55, 44, 76, 55, 20, 27, 61, 57, -71, 39, 53, 1, 96, 34, 101, 117, -94, -87, -31, 104, 27, -121, 13, 40, -9, -104, 6, -26, 19, 45, 5, -66, 82, -119, 39, 87, 42, -42, 1, -6, -82, -119, 119, 5, -116, -46, -55, 42, 7, 102, 40, -95, -71, -39, 24, 55, 1, 78, -3, 110, 40, -59, -46, -55, -89, -22, -16, 45, -66, 43, 19, -5, 79, -108, -1, 
  73, -1, -103, 7, 25, 65, 3, 66, 64, 93, -2, 32, 61, 82, -57, 32, -71, 111, 83, 47, -12, 101, 69, 9, -48, 33, -67, -18, -33, -110, -58, 116, -22, -79, -91, -92, 112, 12, 5, -35, -28, -98, 101, -99, 40, -8, -120, 19, -33, -99, -90, 53, -49, -2, -96, 74, -13, -64, -34, 96, 27, 57, -11, 14, 87, 28, -63, -35, 11, -27, 32, 38, 86, -33, -80, -72, -77, 92, -50, 21, -22, -85, -72, -71, 32, 119, -74, 68, -117, -46, 95, 17, 74, -80, -6, -38, 61, 70, -110, 48, -21, 0, -93, 28, -72, 78, 19, -27, -109, -96, 65, 28, 1, -3, -6, -70, -4, 57, -46, 21, -53, 45, 2, 89, -89, -74, 13, -112, -37, -41, 40, 66, -30, -111, 8, 
  -19, -88, -69, -14, 82, 112, -34, -97, 109, 82, 101, 40, -17, -97, 69, 111, 7, 57, 100, 40, 43, 16, -106, 81, 28, 47, -54, -113, -41, -54, -50, -111, 85, -59, -49, 62, -4, -111, 40, 72, 96, 34, -111, 94, -100, -58, 65, -42, 103, 100, 26, 112, 116, 104, 62, 80, -90, 35, 57, -44, -43, 51, 52, 102, -67, -23, -76, -95, -108, 11, 71, 30, 49, -63, -24, 67, 64, -95, -123, 0, 61, 24, 107, -105, -108, 75, 71, -79, 45, -67, 65, 109, -51, -61, -43, 114, -78, 52, 16, 12, -58, -24, -91, -113, 23, -120, -82, -31, -108, 75, 106, -27, 94, -98, -87, -45, 32, 73, -91, 23, -23, -105, -65, 25, 1, -51, 62, -4, -39, -57, -13, -81, 12, -6, 7, 
  -45, 97, 2, -72, 29, -96, 45, 71, -11, 63, 30, -102, 62, -108, 14, 51, -39, -81, -46, -43, 92, -100, 57, -94, 90, 99, 121, 47, -91, 52, -72, -74, -8, 88, 105, 34, 33, -7, -29, -97, -27, -4, 72, 104, -97, 79, -7, 75, -12, -107, -79, -106, 70, -113, 4, 38, 81, -94, 112, 82, 70, -82, 73, 2, -32, -115, -99, -119, -82, 105, -98, -38, -18, -11, 102, -33, 35, 20, -35, -76, 21, 68, -107, -78, 21, 95, 35, -38, -59, -121, -90, 87, 68, 115, 14, 33, -4, -20, -71, 64, 18, -80, -100, 118, 65, -34, 49, -38, -70, -32, 45, 89, -78, 112, -18, 80, 92, 64, 112, 103, 74, -23, -118, -85, 105, -47, -40, -43, -8, 101, -69, 23, 76, -56, 56, 
  -27, -28, 9, 106, 8, -59, -14, -51, -60, -16, -92, -11, 24, 22, -79, 49, 89, 9, 89, -99, 96, -86, -7, -34, -108, -13, 36, -39, 67, 25, 60, -115, -67, -93, -52, 104, 96, 13, 69, 107, 56, -115, 38, -68, -23, 93, -55, -90, 19, 88, -85, 95, 94, 122, -79, 93, 46, 9, 53, 104, 85, -2, 3, 20, -16, -104, 44, -53, 34, 16, -117, -52, 116, 6, 4, -9, -50, 78, -107, -119, 21, 89, -42, -96, -7, 4, -48, -72, -27, 86, -22, 74, -9, -9, 52, -18, 22, 51, -1, 53, 89, -42, -53, 44, -52, 36, -51, 90, -98, 30, -115, 34, -102, 75, 15, 47, 27, 73, -31, 89, -116, 63, 85, 72, -89, -83, -112, 8, 16, -29, -54, 102, 49, -70, 78, 
  -116, 17, -103, 4, 85, 118, -102, -54, 46, -25, -43, -70, -85, -48, -87, -53, 116, -119, 38, 107, 98, -67, -63, 114, -31, -51, -78, 0, -2, -42, 57, -72, -95, 100, 105, -37, 46, 13, -85, -27, -14, -91, 103, -107, -78, -103, -79, -77, 93, -41, -26, -24, 111, 107, -22, -120, 93, -26, -83, 47, -68, -54, 82, -62, -94, 46, -45, -9, 37, 16, 68, 55, -101, 93, 62, 4, -35, 40, -25, -80, 99, 119, -52, 33, 68, -45, -8, -84, -67, -53, 116, -87, -109, -74, 89, 46, -29, 67, -54, 15, 66, -37, 14, 23, 60, 27, 59, -3, 36, 50, 89, -19, 106, -78, 11, 64, -34, 112, 115, -50, -19, 118, -2, 71, 16, 101, 36, 94, -71, -58, -102, -115, -103, 49, -12, 
  52, -52, -34, 7, 92, -53, 105, 2, -93, 56, -100, -50, -43, 17, -2, 86, -83, -82, 84, -41, 43, 63, 114, -72, -91, 41, -29, -84, -97, -65, -126, -107, -107, -110, -125, 46, 89, 15, -81, 17, 33, -125, -122, 105, -34, 26, -73, 26, 109, 107, -96, 67, -33, 50, -103, 29, 68, 16, -91, -40, -119, 106, 80, 90, 83, -2, 92, 67, 66, 68, -58, 38, 12, 14, -40, 52, -5, 82, 45, 20, -61, -28, -18, 72, -102, 106, 6, -12, 111, -20, 46, -20, -122, 44, 1, 104, 86, -1, 2, 5, 81, -8, -62, -66, 112, 2, 100, -95, -22, 105, -114, 33, 87, -38, 67, 67, 30, 104, 33, 21, -8, -24, -12, 92, -77, -102, 105, -111, -1, -30, -117, 7, -96, -13, 91, 
  -89, 40, -59, 118, -37, -23, -108, 11, -2, 33, 116, -47, -49, -39, 14, -98, -104, 48, -71, -49, 62, 33, -45, 111, -7, 110, -61, 18, 108, 74, 66, -80, 36, -66, -113, -12, 44, -78, 6, -101, -54, -94, -53, 17, 26, 112, 14, 54, -46, -18, 117, 87, -5, 39, 110, -1, -82, -70, -111, -95, -46, 2, 72, 49, 55, -44, -96, 66, 16, -6, -21, 75, 113, 22, 120, 7, 36, -112, 31, 15, -56, 90, -108, 105, -13, -90, 37, 104, -8, 35, -92, 17, -10, 84, 51, -98, -52, -96, -55, -109, -110, -9, -9, 7, 1, 2, 6, 10, 71, -62, -31, -52, -18, 65, -73, -80, 38, 45, 72, -77, 33, -97, -81, -88, 23, -17, -17, -84, -9, 21, 60, -99, 13, -101, -1, 
  -21, -27, -56, -77, 92, 110, 30, 111, -44, 82, 21, 52, -5, 81, -106, -52, 13, -33, 61, 29, -66, -41, -96, -31, -79, -83, 95, 42, 76, 64, -103, 99, 88, -39, -83, 118, 62, -95, -117, 15, 84, 47, -108, -21, 82, -82, -60, -118, -104, -91, 83, 55, 97, 74, -62, 57, 1, 69, -53, -95, -57, -51, 12, -99, 63, -98, 46, -27, 55, -70, 9, 110, 108, -18, -109, -44, 97, 104, -108, -58, 31, 5, -93, -77, 9, -34, -68, -21, 41, 53, 59, -31, 49, -113, -113, -45, -114, -49, -113, -95, -86, -102, -97, -44, 28, -120, -78, -20, -40, -10, 40, 64, 79, 87, -106, -26, -55, 66, -112, -35, -115, -71, -92, 15, 102, 17, -65, -116, -86, -65, -3, -51, 39, -2, 6, 
  -64, -108, -23, -18, -111, -111, 15, 68, 101, 29, -19, 116, -13, -53, 75, -94, -13, -76, 53, 59, -59, -10, -6, -82, 28, -87, 29, 16, 55, 82, 84, 48, -71, -48, -12, 103, 62, -69, -112, 54, 47, -25, 29, 73, 36, 57, -116, -84, 2, -9, -90, -23, -57, 98, 113, 5, -58, -6, -88, 40, -62, 107, 0, -25, -61, -41, 58, 64, -86, 71, 66, 78, -37, 35, 126, -4, 56, 11, 86, 76, -18, 79, -105, -57, -103, -58, -31, -54, -7, -44, 47, 109, -48, 26, 113, 96, -85, -17, 68, -111, -47, -3, -42, -12, -112, 112, 46, -74, 24, -3, 16, 21, 73, 120, 118, 16, 125, 53, 60, 0, 34, 95, -96, -5, -48, 93, 94, 35, 17, 107, -95, -46, -71, -70, 66, 
  74, -24, -106, -51, 32, -27, 7, -10, 59, 13, -26, 114, -5, 27, 64, 31, -16, 14, -40, 107, -44, 83, 89, 25, -22, -113, -71, -71, -109, -90, -16, 96, 6, -50, -50, -90, -4, -14, 67, 18, -110, 60, 71, -47, 12, -93, -69, 41, -57, -89, -98, 46, 85, 38, 73, 100, -35, -27, -69, 44, -90, 21, 95, -106, 80, -31, -7, -70, 68, -102, -122, 12, 85, 105, 67, 110, -63, -3, 43, 18, -115, -84, -104, 16, -52, -91, 32, -106, 29, 119, 93, 87, 71, -94, 25, -98, 80, -122, 83, 45, -37, 29, -61, 5, -4, 72, 44, -78, -12, 46, -11, 93, -70, -29, -42, -6, 95, 41, -21, 57, -33, -89, 70, -106, -7, 114, -107, 91, -27, 7, 114, 36, 10, 118, -49, 
  -55, -44, 7, 99, -49, -7, 104, -114, 78, 89, -96, -67, 87, -72, 72, -41, -31, -64, -9, -101, -30, -46, -17, 68, -91, -82, -19, 84, 93, 34, 69, 57, 43, -22, 33, 71, 80, -97, -43, 83, 37, 117, 94, -102, 41, 9, 95, -117, 20, -1, 0, -67, 69, -101, 109, 21, -58, -82, 51, 103, -87, -78, -109, -30, 4, -116, 31, 67, 89, -90, -103, 19, 104, -82, -8, -32, -63, 59, -1, 26, -58, 111, 13, 106, 43, 1, 18, -22, -57, -63, 48, -45, -95, -32, 119, 107, 117, -105, 68, -4, 27, -81, 39, -25, 49, 14, 45, -53, -79, 4, 18, 6, 40, 44, -32, 107, 44, 112, -72, -28, -81, -59, -94, -74, 38, 28, 86, 17, 49, -7, -54, -42, 62, -58, 108, 
};
const TfArray<2, int> tensor_dimension5 = { 2, { 75,135 } };
const TfArray<1, float> quant5_scale = { 1, { 0.0014022636460140347, } };
const TfArray<1, int> quant5_zero = { 1, { 0 } };
const TfLiteAffineQuantization quant5 = { (TfLiteFloatArray*)&quant5_scale, (TfLiteIntArray*)&quant5_zero, 0 };
const ALIGN(8) int8_t tensor_data6[50*75] = { 
  -73, -69, -37, 1, 85, -90, -61, 54, -35, 56, -101, -77, 69, -120, 47, 67, -100, 104, 28, -44, -91, 29, -58, -76, 66, -111, 26, 67, 93, 94, 96, 72, 65, -109, 59, 20, -69, 31, -82, 106, 88, -34, -31, 112, -64, -55, 80, 95, 28, -105, -30, -32, 76, -71, 95, -94, 91, 35, -118, 55, -80, 57, -40, -56, -120, -24, 21, 83, -43, 56, -15, 55, -86, 26, 67, 
  -74, 10, 20, -99, 41, 121, -70, 45, -104, 94, 97, 115, 111, 57, -75, 91, 75, 83, -8, 93, 47, 15, 69, 103, -53, 66, 70, 85, -43, 112, 44, -79, 46, -32, 103, 34, -111, 28, -110, -87, 12, -44, 117, 91, 44, 84, -22, -116, -29, -108, 102, -47, -49, -85, 82, -57, 111, 110, 79, 74, -11, 104, -53, 90, -7, -63, 23, -25, 106, -57, -65, 35, -56, -44, 36, 
  -92, -2, -69, -37, 111, 51, 67, 83, 70, -75, -63, 15, -74, 111, 85, 38, 92, -16, 55, -85, -10, 56, 89, -88, -4, -2, -61, 5, -114, -117, 27, -65, 0, 60, 109, 12, 96, 104, 62, -4, 43, -26, 5, 70, -19, 48, -60, 31, -82, -9, -44, 71, 38, -10, 64, -58, 100, 109, 63, 47, -96, 70, -47, 82, 86, 79, -94, -113, 14, 77, 101, -116, -39, 75, -55, 
  -78, 52, 86, 112, -63, -83, 47, -76, -98, -112, -44, 13, 3, 110, -64, 110, 68, 106, -96, -73, -71, 13, -29, -17, 105, -80, -17, 77, -22, 57, -113, 15, -92, 50, -51, -60, 16, -22, 88, 108, 111, -10, -2, -6, -105, -10, -77, 87, -86, 46, 64, -116, -74, 109, 101, 67, -27, -69, 110, 96, -5, -32, -98, -119, 6, 96, -29, 79, -109, -8, -38, 91, -83, -67, 10, 
  17, 98, 6, 22, 69, -54, 79, 47, 48, -112, 63, -57, 41, 58, 91, 82, 18, 92, -50, -2, -75, 13, 43, -49, -85, 0, -66, 35, -97, 34, -84, 89, -92, -69, -39, 116, 83, -7, -11, 59, 46, 42, 104, 23, 79, -118, 97, -109, 53, -80, -36, -43, -66, 83, 72, -10, -67, -49, -81, -85, -39, 64, -80, 112, -34, -7, 116, -83, -33, 15, 8, -107, -50, 57, 72, 
  69, -22, -118, 90, 71, 8, 103, 87, 74, 93, -76, 111, 92, 23, -23, 27, 12, -102, -84, -6, 74, -27, -58, 30, -40, 19, 116, -5, 24, -50, -59, -86, 48, -26, -70, 116, 60, -32, 9, -105, -113, -74, -55, -51, -46, -92, 24, 42, -7, -96, 34, 53, -70, -12, -41, 24, -14, 83, -37, 48, 96, -69, -23, -91, -38, -110, -10, 56, 50, -77, 22, -84, -82, 57, -96, 
  88, -32, -59, -10, 99, 69, -101, -72, 16, 66, 36, 67, -84, 42, -2, -20, 24, -114, 48, 12, -89, -98, -61, -100, -89, -51, -7, -105, 59, -106, 93, -16, 12, -93, -86, 18, -97, 107, 84, -18, 72, 77, 5, -23, -93, 2, 49, 68, -9, 89, 85, 28, -84, 19, -14, 34, -1, 39, -52, -11, -90, 24, 59, -25, -61, 36, 48, 83, 85, -111, 19, 98, 51, 114, 31, 
  -65, -19, 70, -44, 90, 66, 12, -83, 14, 93, 17, 52, 67, -28, -2, 74, 111, 100, -83, -40, -41, 9, 84, -37, -61, -68, -37, 79, 48, -40, -7, -79, 57, -32, -82, -20, 78, -68, -24, -45, 84, 100, -111, -102, 12, 35, 92, 89, 90, 2, -91, 99, 49, 83, -51, -83, 63, -36, -14, 115, -80, -45, -53, -1, 84, -104, 77, 99, 51, -31, 107, 105, 2, 117, 69, 
  -82, -4, 43, 55, -107, -32, 104, -14, -102, -76, 22, 47, -64, -22, -106, -96, -82, 14, -26, -35, -86, 71, -22, -117, -90, -35, 35, 60, 47, 90, -33, -19, -66, 104, 91, -55, 85, -18, -73, -109, 106, 108, 50, 104, -21, 58, -63, 92, 70, 3, 105, -2, 45, 38, -29, -54, 108, -64, -36, 32, -98, -18, -115, -24, -70, 41, -121, -29, -24, 116, -82, 31, 81, 63, -110, 
  -31, 68, -22, 25, 42, 3, 0, -55, 70, 17, 55, -49, -82, -31, -51, -101, 22, 38, 41, -40, 29, 55, 89, -27, -105, -101, -88, 15, 28, -23, -48, 88, 108, 17, 92, 46, -48, 89, -10, 6, 47, 63, 19, -76, 69, 42, -99, -71, 66, 4, 34, 41, -43, -30, 25, -105, 44, 12, -81, -38, 75, -13, -92, 20, 69, -99, 98, -94, -37, -72, 54, 40, -37, -61, 24, 
  -3, -31, -66, -100, -53, 99, -50, 103, 94, 51, 7, 9, -50, -115, -36, -1, -80, 1, 68, 1, -43, 104, 34, 54, 52, -48, -78, 70, 43, 62, -105, 49, 45, 32, 109, 71, -74, -67, -76, -59, 99, -26, -88, 5, -74, -12, -103, -49, -92, 76, 38, 48, 89, 113, 35, 21, -3, 110, 41, 0, -107, -35, 96, 108, -101, 110, -74, 65, -80, -39, -92, -30, -15, -44, 50, 
  17, 80, -85, -47, 99, -39, 12, 55, 32, 20, -37, 1, 39, 125, 98, 51, -32, 41, 101, 20, -37, 72, 14, -13, -105, 11, 41, -57, -56, 113, 11, 74, -69, 83, 59, 69, -28, -110, 83, 29, 1, 31, 52, 11, 0, 86, 97, -111, -25, -121, -50, -15, 17, 81, 87, -103, -111, 114, -68, -66, 45, -114, 89, 7, 4, 127, 59, -30, -23, -74, 62, -39, -3, -118, 65, 
  79, 48, -52, -26, -76, -60, -107, 108, 73, 31, 5, -25, -107, 12, -70, 110, 115, -76, 11, 41, 81, -77, -75, 11, 34, -56, 29, 30, -102, -76, 80, -20, 12, -17, -42, -83, 88, -74, -14, -51, -11, -118, 7, -28, 51, -73, -66, -18, 96, 40, -61, 103, -17, -80, 85, -117, -115, 41, 9, -23, 102, -84, -116, 87, 36, -53, -5, 100, 113, 27, -59, 54, 50, -103, -84, 
  -21, 73, 46, 25, 96, -100, 13, 92, -21, -64, -61, 25, -49, -106, 75, 30, -13, 5, 74, -62, -6, 111, 53, 80, 115, -37, -100, 88, 4, 39, -90, 53, -33, -100, -66, -26, 114, 32, 72, -65, 111, 36, 42, -58, -68, 73, -55, -53, 56, -17, -112, 113, -80, -116, -64, 76, 105, -84, -42, -37, 93, 17, -60, -118, -50, -62, -60, 11, -2, 2, -98, -73, -95, -2, -85, 
  7, -40, -112, 21, 113, 5, -112, 7, -1, -49, 75, -78, 110, 74, 38, 71, -9, 13, 9, -93, 38, -87, -102, 117, 61, 56, -4, -7, -29, -28, -37, 96, 91, -64, -36, -113, 37, 86, -21, -90, 75, -115, 77, -61, -107, -107, -54, -13, -44, -113, -31, 93, 56, -100, -95, 49, -25, -13, 68, -72, -62, 23, -85, 23, 92, -99, -51, -107, -27, -88, 114, 110, 17, -51, -75, 
  97, 3, 110, -99, 65, -101, 103, 79, 30, 42, 19, -51, 20, -36, 13, 16, 12, -75, 77, 84, -15, -115, -1, -56, 24, -4, 117, -100, 54, 94, 118, -56, -76, 37, 37, -66, -60, 7, -73, 69, 5, 12, -87, 17, -52, -74, 31, -38, 44, 16, -64, -107, -79, 50, -66, 100, -34, -52, 105, 18, 109, -35, -59, 89, -112, -109, 114, -106, -89, 22, 87, -53, 84, -85, -60, 
  -36, 14, 69, 45, 37, 9, -64, 6, -67, 101, -82, 64, -39, 101, 9, -6, 107, 62, 27, -119, -90, 96, -70, -20, -48, 3, 76, 71, 104, 6, 87, 86, -30, 105, 50, -2, -13, -95, -55, -64, 38, 41, -103, 80, 20, -87, -42, -7, -12, -18, 78, 26, 41, -24, 13, 101, -112, -32, 9, 18, 2, -112, 43, -108, -45, 109, -53, 86, 12, 58, 82, -106, -64, -76, 54, 
  102, -34, 105, -66, 49, 50, 67, -74, -10, -37, -13, 56, 55, -55, -43, 42, 81, -91, 114, -86, 103, 65, 51, 103, 35, -83, -81, -83, 82, 116, 20, -11, -21, -20, -33, 81, 64, 27, -12, 20, -65, 89, 77, 88, 15, -9, -94, 53, 77, -99, -66, 85, -56, 71, 42, 14, 41, -66, 13, 111, 50, 29, -6, -22, -5, 23, -47, 51, 20, -84, 109, -110, -11, 40, 96, 
  75, 65, 84, -91, 40, -4, -82, 10, 104, -19, 106, -23, -118, -6, -60, 15, -57, -93, 98, -83, -39, -37, 26, 78, 103, -21, -85, -104, -43, 35, -112, -54, 79, -17, 24, -115, -98, 111, 18, 46, 7, 92, 81, -108, -15, 46, 48, -104, -91, -91, -76, 113, 50, 19, -44, -54, -14, -69, -46, 65, 48, -49, 91, 33, -50, 69, -58, -4, 108, 33, 20, -99, -114, 108, 18, 
  37, 81, 34, 112, -9, -40, -95, 19, -38, -62, -39, 31, 37, -112, -27, 106, 108, -115, 4, 93, -43, 74, 77, 67, -59, -59, -78, -88, -39, -11, -60, -11, 84, 67, -65, -40, -91, 21, -39, -21, -107, -84, 13, -16, 30, 81, -95, -19, 50, -16, -103, -23, -108, 79, -86, -64, -116, 5, -30, -28, -41, -104, 88, 107, 36, -1, 7, 53, 82, -106, -114, 62, -106, 95, -56, 
  32, 20, 102, 16, -94, -54, 41, 10, -106, 26, 91, -2, -98, 116, 75, 11, 23, -30, 68, -106, -67, 106, 28, -108, 45, 88, 70, 56, -63, 23, 18, -31, -11, 28, 30, -24, 55, 29, 47, 91, -21, 67, 5, -116, -31, 111, -74, 62, -17, 70, -24, -18, -45, -104, 97, -93, -72, -17, 85, 13, -73, -113, -73, -29, -50, 37, -38, 113, 98, 98, 54, -92, -104, -24, -67, 
  -58, -50, -27, 75, 2, 81, 74, -52, 54, 94, 14, 34, -48, -73, -76, -116, 110, -87, -44, -43, -89, -71, 108, -100, 66, -65, 60, -27, -90, -39, -18, 70, 91, -28, 34, -23, -111, -97, -16, -79, -113, -75, -116, 50, 86, 1, -102, 92, -20, -31, 21, -100, -56, 0, -5, 79, -15, -78, -99, -7, 67, 118, -15, 92, -46, 69, -37, -17, -75, 84, -116, -118, -38, -28, -63, 
  25, -51, 33, 112, -7, -67, 18, 102, -8, -102, 29, -119, 29, -109, 55, 0, -3, 44, -75, -67, 115, 15, 43, -1, 0, 81, 12, 103, 38, -93, 23, 79, 53, -105, -52, 80, 88, 91, 107, 98, 68, 0, -96, 73, 35, 76, -35, -66, 7, -68, -104, 74, -115, -105, -92, -70, 16, -76, 50, -13, -18, -6, 22, 68, 34, 63, -79, -18, -110, -46, 46, -7, 7, -114, -66, 
  -69, 86, 3, 32, 81, 100, -49, 70, -80, 13, -67, -102, 29, 118, -11, -73, 26, 47, -6, 97, -47, 57, 85, -67, -36, -108, 70, -99, 114, -92, 107, 22, -40, 61, -103, 72, 39, 38, -79, 3, 37, -22, 109, 55, -16, 65, 14, -45, 91, -47, 15, -23, 21, 44, -108, -54, 61, 9, 27, -57, 64, 1, -69, -115, 16, 62, 1, -92, -54, -38, -8, 105, 107, -10, -106, 
  -61, -7, -98, -102, 46, -90, -74, -32, -74, -50, 62, -41, -115, 76, -30, -10, 102, 10, -61, 58, -110, -54, -39, 87, -73, -10, -30, 35, -92, 58, 50, 33, -55, 51, 94, 95, -54, -66, 119, 7, 54, -75, -10, 26, -70, 38, 109, 81, 111, 80, -35, -95, 53, -41, 55, 62, -111, 109, -78, 27, 9, -59, -106, 63, 33, 15, -29, -23, 20, 91, 65, -80, -113, -66, -47, 
  -91, -26, -88, -9, -17, -107, 73, 85, 48, 89, -54, -64, -66, -44, 19, 73, -15, 10, -33, 41, -64, -110, 82, -71, -47, 21, -57, 42, 35, 82, -17, -107, -92, 88, 30, 90, -29, 57, -38, 72, 10, -37, -27, -48, -78, -113, 57, 46, -41, -24, 89, -76, -61, -22, -103, -7, 101, 15, -54, -20, 26, 4, -69, 107, 63, -73, 61, 116, 20, -60, -84, 13, 19, 116, 35, 
  14, 53, -113, -24, -84, -91, 82, 42, 72, 93, -98, -50, 12, -31, 53, 2, 106, -31, 102, -66, 30, -2, 16, -59, -85, -45, -24, -90, -63, -16, -29, -87, 87, 19, 17, 78, -117, -42, 57, -106, 70, 122, 49, 8, 7, -110, -73, 15, -1, -16, -108, 10, 69, -86, 56, 116, -81, 75, -66, 78, 30, 39, 103, 24, -47, -27, -29, 51, 12, 13, 51, 82, -18, 81, 5, 
  -66, -93, -23, 19, 90, 7, 61, 28, -63, -6, 2, 25, 12, -4, -19, 4, 94, 115, 77, -102, -72, 76, -24, 51, -17, 1, 16, 94, -3, 17, 11, 86, 12, -8, -81, -21, 52, 62, 106, -84, -112, 37, -83, -44, 50, 71, 112, 44, -103, -72, -81, -80, -104, 42, -121, 100, -98, -71, 9, 42, -106, -103, -106, 49, 112, -29, 22, -105, -12, 50, 64, -86, -117, -26, -49, 
  4, -110, 104, 103, 39, 95, -10, -44, 8, -58, 5, 40, -23, -8, -24, -21, 17, -14, -61, 95, -29, 39, -54, -76, -58, -5, 15, -57, 27, 74, -75, 33, -9, 75, -89, -92, 95, 1, -69, 50, -58, 62, 21, -35, -58, 119, -93, -66, 110, 38, -15, -82, -79, 50, -17, -18, 118, -102, 66, -83, -43, 82, 122, -29, 89, -22, 16, 47, 38, -69, -48, -11, -95, -49, -53, 
  26, -63, -94, 107, -81, -100, 26, 32, 68, -50, 70, -33, -74, -67, 59, -114, -30, -118, -37, -44, -96, -110, 11, 39, 66, 108, -67, -35, -9, 39, 25, -91, 81, 53, 59, -20, -12, 71, -104, -14, -75, 106, -116, 92, -8, 44, -68, -115, 14, -19, 41, 71, -66, 75, -21, -57, 1, 17, 81, 64, -94, 71, -25, -57, -31, 20, 70, -92, 35, -89, -9, -102, -12, 59, 89, 
  22, -97, 95, -34, -22, -95, -42, 78, 96, -75, -37, 73, -95, -45, -95, -43, 103, 80, -18, -41, 29, -16, -81, 14, -28, 53, 77, 94, -103, -80, 104, 29, -99, -17, 11, -82, 25, -79, 37, -28, 93, 45, -12, 5, -59, -27, 56, 94, 2, -102, 77, -94, 38, 73, -13, -76, 13, -98, 49, 60, -25, 113, 60, 107, -99, -74, -38, -1, 31, -79, 110, -71, 68, 40, 101, 
  42, -41, -35, 55, 75, -5, 101, -47, 24, 19, 100, 42, -23, -31, 39, 39, 21, -66, 84, 86, 57, -105, 87, -58, 72, 101, 96, 45, -48, -76, 83, 39, -114, 33, -40, -27, -93, -51, -17, -47, -7, 86, -96, -74, -45, 106, -116, -79, -64, 22, 54, -98, 109, -52, -1, -121, -24, -54, 88, -55, -42, 38, -61, 71, -44, -34, 35, 4, 27, 106, 116, -110, 14, 23, 77, 
  -62, 91, -109, -101, 68, -1, -18, -12, 96, -1, -55, -5, 89, 61, -76, 59, 50, 1, -109, 115, -42, -97, -86, 43, -22, 62, -74, 101, 90, 70, -39, 0, 61, -48, -13, -103, 69, -99, -13, 102, -94, -38, 86, 81, 12, 110, -23, 59, -95, -101, 82, -92, 36, 27, -85, -86, 6, 59, 113, 79, 81, 89, -109, -116, 111, -67, 56, -70, -103, -82, 27, -62, -56, -14, 94, 
  -94, 100, -74, 30, 107, 31, -10, 35, 85, -8, -15, 34, 6, -39, -6, -88, -97, -112, 15, -45, 94, 61, -15, -117, 96, -54, 117, -82, 97, 28, 111, 52, 16, 111, 63, -60, -59, 27, -86, 81, -50, -72, -16, -81, -102, -59, 100, -17, 62, -102, 31, 35, -83, -40, -29, 33, -60, -76, -49, -31, -51, -47, 60, 114, -97, 65, 103, 41, 45, -48, 38, -10, 94, 41, -60, 
  -89, -68, 40, 111, 110, 44, -8, 103, 116, -107, -16, 71, 2, -117, -120, 0, 52, 4, -90, -88, 41, 55, 7, 83, 60, -27, -79, 45, -48, -30, -42, 107, -62, 95, 36, -4, 82, 63, -24, 28, 110, -118, -63, 102, -23, -44, -114, 49, -91, 76, -116, 36, -61, -96, 38, -15, -25, -108, 68, -67, -108, 20, 106, 62, -53, 91, -43, -75, -40, 80, -70, -27, -104, 33, 21, 
  11, 108, 54, -99, 17, -106, -44, 108, 103, -12, 81, -28, -89, 34, 89, -15, -89, -6, -11, -39, -94, -26, 89, 57, -67, -23, -58, 44, 114, 66, 69, -76, 46, -63, -95, -55, -115, -86, 50, 35, -5, -15, -102, 114, -97, 32, -15, -62, 96, -77, -107, 45, 103, -98, 44, 64, -77, 74, 60, -21, 46, 97, 78, 40, 88, -116, -81, -30, 18, -16, -86, 117, 59, -63, 54, 
  90, 49, -10, 42, 72, 94, 100, 71, -4, 20, -56, -3, 47, -104, 33, 56, -112, 118, 27, 19, -49, -36, 110, -75, -19, -72, -19, 94, 35, -10, 71, 4, -42, 13, 75, -40, -12, 106, 19, 16, -33, -113, 102, -36, -118, 35, -23, -105, -10, 89, 77, -37, -81, 47, 79, -33, -66, -94, -84, 61, 101, 13, -102, -101, 50, 17, 114, 97, 94, -111, -36, 13, -15, -119, -95, 
  -109, 99, -6, -47, -99, -79, -28, 0, 15, 3, 61, -23, 46, 32, 94, -99, -63, 73, -111, -63, -105, -15, -13, -99, -114, -24, -47, -114, -12, -67, -100, 77, -69, -8, 62, 38, 88, -30, -63, -83, -87, 49, 5, -54, -2, 17, -118, 53, 61, -3, -103, -33, 74, -116, -48, 31, -61, 79, -64, 109, -111, 105, 104, -31, 67, 115, 111, -24, -115, -89, 62, 10, -34, -112, -51, 
  52, -25, 113, -1, -6, 98, 19, -32, -92, 21, -117, 26, 79, 37, -103, -44, 69, 18, 82, -40, 73, -55, 89, -79, -77, 74, -85, -24, 37, -64, -44, -66, 68, 46, -54, -53, 95, 14, 42, 96, 65, -75, 119, -81, -12, 77, -100, 16, 65, 35, -82, 75, -60, -93, -90, 70, 69, -56, 111, 79, 72, -37, -39, -26, 68, 47, 58, -119, -20, -28, 79, -75, -4, 65, 9, 
  88, 87, -38, -38, 110, 35, 75, -95, 53, -32, -54, -14, 115, -18, -4, -115, 59, 95, 0, 0, 65, 77, 98, 23, -116, -28, -18, -112, -26, -116, 14, -113, -103, 19, -111, -108, 110, 38, 74, 21, -10, -111, -75, 9, 25, -21, -82, -53, 72, -84, 53, -49, 43, -15, 19, -31, 30, -78, 10, -56, 63, 26, 86, 7, -62, -13, 117, -111, -55, -46, 89, -6, -88, 51, -55, 
  94, -105, -32, 14, -56, -45, 111, 23, -59, -73, -34, -56, -89, 100, -16, 4, -112, 43, -34, -103, -1, -87, -78, 112, 14, 115, 30, -102, 45, 62, -105, -82, 11, 79, 116, 10, 69, -3, -19, -59, -95, 75, 39, 17, -100, -109, -49, -97, 96, 28, -27, -100, 67, 88, 98, -24, -23, -65, -19, -123, -27, 99, 35, 12, -76, 112, 73, -32, -27, 29, -101, -5, -87, 74, -79, 
  24, -83, -92, -98, -19, 56, -3, 49, 108, 11, 47, -43, -45, 31, 112, 94, -37, -109, -54, 11, 39, -8, 0, 95, 55, 48, -8, 60, 56, -81, 32, -16, 18, -110, -34, 42, 74, 15, 78, 28, 71, -85, -17, -90, 40, -52, -94, 109, -110, -12, 29, 24, -83, -93, 86, 68, -92, -107, 71, -99, 99, 9, 98, -46, -3, -35, 66, -101, -122, 108, 110, -82, -47, 2, 66, 
  72, 87, 33, -33, 72, 90, -73, -45, 70, -25, 97, -53, 48, 84, 25, -14, 28, 99, 103, -119, 109, 102, 96, 37, -21, 35, 109, 47, 75, -66, -29, -1, -75, 94, -69, -27, -25, -48, -112, 42, 27, 69, 80, 90, -97, 62, 71, 34, -105, -42, 95, -27, 48, 109, 86, -37, -58, -107, 57, 71, -116, 41, 12, 82, -88, 55, 27, 33, 24, 113, -72, -5, 47, 9, -52, 
  -22, -84, -32, -77, -9, 49, 28, -88, 57, 102, 40, -13, -41, 40, 15, 7, 75, 5, 103, -79, 48, 23, 37, 66, -57, -96, 45, 86, 12, 71, 17, 70, 103, 39, 44, -1, 64, -76, -72, -62, -42, -96, -96, -18, 115, -90, -35, -42, 83, 65, 60, 0, -48, -93, 97, -3, -107, -49, -49, 82, -125, -103, 99, -22, 112, 64, 62, 39, -81, 0, -76, 119, -24, -113, -117, 
  -118, 112, -22, 27, 109, -6, -78, 61, 45, 67, 100, -58, -40, -21, 55, -63, -11, 72, -5, -21, 84, 68, -50, 59, 39, 81, 20, -110, 80, -101, -7, 19, -10, 68, -59, 73, -37, -78, -78, -100, 89, 70, 108, 26, -71, -11, 37, -61, 63, 58, -42, 70, -105, -68, 65, 52, -88, 8, 49, -68, -47, 28, 84, 0, 53, -41, -25, 60, -10, -80, 21, 12, 46, -73, 98, 
  -79, -107, -58, 80, -69, -71, -24, -37, 1, 23, 119, 4, -66, 103, -116, -119, -39, 48, -19, 103, 3, -6, -69, -35, 20, -111, 78, -65, -9, -92, -20, 17, -50, 68, 78, -27, -1, -93, -73, 57, 21, 26, 11, 10, -113, 1, 40, -111, 83, 114, 77, 10, -101, 101, -26, -44, 110, -22, -115, 30, 55, 49, 72, -19, -77, -60, -10, -57, 111, 108, 29, 50, -40, -30, -84, 
  71, 98, -8, -52, -114, 62, -37, -95, -64, 94, -68, 71, -90, 78, -14, -78, -20, 41, 46, -44, 23, -84, -90, 23, -87, -74, -97, -66, 119, -103, 41, -118, 50, -93, 95, -18, -105, -83, 56, 112, 63, -45, -44, 10, -100, -17, 67, -39, 112, -87, 54, 61, -34, -75, 45, -43, 41, -32, 17, 20, -62, -61, -101, -15, -18, -77, 102, -98, -59, -85, 3, 37, -63, 88, 34, 
  -22, 76, -24, 51, -117, 100, -89, 70, -108, 38, 111, -17, 65, -3, 47, 30, 50, -41, 74, 83, 16, 15, -48, -39, -13, 109, 116, 25, -99, 71, 106, -23, -90, 13, -10, -39, -91, 104, 77, 80, -88, -7, -68, 3, 73, 23, -60, 115, 79, 57, -115, 76, -78, -34, -36, -78, -21, 57, 119, -115, -41, 33, 65, -14, -38, -77, 114, -48, -41, -30, 98, 115, 111, 67, -37, 
  110, -82, -14, 4, 72, -20, 77, -97, -3, -75, 5, 6, -35, -78, -83, 32, -89, 52, 64, -36, -7, -83, -26, 46, -59, 60, 74, 14, 102, 55, -49, -83, -113, -109, 27, -78, 29, 106, -30, 34, 27, 89, 104, 4, -54, -105, 56, -59, -44, -87, -13, -62, -63, 71, 36, -83, 66, -36, -7, -28, -103, -7, 105, -24, -55, -88, 19, -6, -115, 54, 37, -117, 9, 89, -10, 
  -82, -40, -91, 107, -61, -109, 43, -2, 62, 113, 11, -57, -28, -66, 108, -25, 9, -108, -55, -47, -116, 78, 57, 2, 91, -91, -17, 81, 78, 110, 63, -37, -92, -64, -68, -9, 54, 81, 37, 100, -115, 1, 47, -30, -56, 15, 115, 41, -77, -27, -76, -54, -60, -98, -100, -81, 45, -46, 28, 102, 7, -21, -106, 114, 100, 96, -31, -95, 117, -51, 18, 80, 74, 119, 33, 
};
const TfArray<2, int> tensor_dimension6 = { 2, { 50,75 } };
const TfArray<1, float> quant6_scale = { 1, { 0.0018393027130514383, } };
const TfArray<1, int> quant6_zero = { 1, { 0 } };
const TfLiteAffineQuantization quant6 = { (TfLiteFloatArray*)&quant6_scale, (TfLiteIntArray*)&quant6_zero, 0 };
const ALIGN(8) int8_t tensor_data7[25*50] = { 
  -30, 80, -111, -11, 97, 4, 50, 20, -3, -36, 44, 30, -68, 99, -58, 56, 61, 48, -99, -100, 2, 38, 42, -108, 2, 17, -106, -81, 16, 22, -116, 11, 107, -102, -105, -57, -31, 33, -84, 89, 40, 1, -22, 83, -75, 77, 56, -108, 113, 89, 
  66, 22, 46, 105, -24, 81, -41, -1, -5, -1, -106, 101, 61, 34, -42, -94, 96, -18, 91, 66, 54, -91, -63, -34, 28, -11, 105, -15, -111, 77, 115, 108, 96, -7, -13, -106, 2, 107, 41, 3, -9, 35, -42, 84, 86, -114, -71, 95, 59, -99, 
  -110, -13, 95, -22, 17, -12, -24, -103, -105, -77, 108, 8, 48, 45, 54, 71, -38, -90, 79, 67, -56, 43, -93, 76, -127, -89, -30, -31, 22, 12, 53, -56, 58, 100, 50, 63, -68, 35, -89, -111, -9, 36, 114, -68, -16, -23, -22, 104, 107, 106, 
  -107, 8, 110, 55, 82, -2, -34, -75, 97, -53, -56, 13, -112, -47, 52, -11, -44, -29, 8, 93, -64, -70, -89, 11, -43, -5, -109, 114, -59, -89, -19, 48, 61, 67, 65, 107, -110, -47, -42, 21, 26, 32, 27, -105, -65, -10, -73, -97, 16, -11, 
  -17, -56, -84, -97, 98, -62, 72, -83, 109, 72, 87, 64, 28, 106, 46, 47, -65, 38, 1, 23, -30, -11, 70, -26, -75, 96, 55, 10, 50, -34, -85, 111, 65, 83, -33, 90, -82, 52, 12, 14, -102, -22, 63, -105, 83, -30, 92, 50, -51, -107, 
  -13, -25, 8, -84, -89, -9, -17, -105, 46, 56, -101, 48, 100, -73, 59, 12, 100, 71, 104, -12, 41, 68, -90, 54, 82, 44, 51, -88, 99, 22, -20, 46, 22, -1, -88, 26, 46, 36, 62, -37, -68, 96, 26, 103, 98, -52, 6, 11, 17, 69, 
  -102, -102, 104, -44, 75, 72, -34, 89, -51, -74, 27, -68, -41, 34, -38, -88, 18, -47, 103, -92, 49, -49, 69, -3, 79, -67, 9, 9, 84, 36, -55, -50, 38, -66, 94, -115, 109, -51, -103, -102, -70, -14, -20, 16, -39, -73, -67, -39, 90, -78, 
  94, 16, -82, 16, -78, 12, -62, -58, 40, -84, -45, 57, 90, -96, 48, 52, 53, -94, 90, -35, -30, -76, 43, 56, 93, 82, -111, 83, 93, 49, 32, -103, 57, -99, 25, -64, 48, 97, -49, -74, -10, -86, 111, -91, 76, -42, 97, -37, 41, -74, 
  9, 69, 77, 73, -70, -53, -79, -104, 25, 4, -78, 85, 22, 89, 4, -53, -48, -92, 70, 68, 48, -113, 30, -35, -115, 110, -15, 0, 109, 48, -15, 77, 60, 6, 36, 104, -61, 35, 9, -46, -30, -20, -109, 29, 57, 21, 29, 112, 90, 33, 
  94, 32, -24, -20, 29, -108, 27, -96, 88, -103, 74, 31, 100, 94, 85, -106, 104, -10, 67, -24, -7, -80, -13, -116, -91, 115, -38, 36, -26, 43, 53, 68, -91, -18, 21, -101, -92, 96, 68, 50, 9, -1, 55, -69, 92, 69, 53, 54, 1, -113, 
  -77, -110, 2, 67, 20, -114, -52, 55, 34, -73, 17, -46, 104, 47, -73, 109, -4, 66, 13, 87, -20, 19, -85, -36, 80, -98, 31, -64, -101, -48, 98, 114, 44, 73, -37, 67, -6, -20, -108, 80, -111, 28, -42, -96, -42, 42, 68, 84, 58, -52, 
  62, 30, 39, 39, 88, 84, -50, 18, 0, -44, 15, 59, -67, -98, -102, -59, 10, 12, 25, 40, -34, -44, -63, 6, -37, -114, -75, 52, -36, 105, -85, 14, -111, -111, -44, -105, 103, -102, -91, 1, -97, -10, 2, 104, -19, 80, 70, 64, 89, -32, 
  45, 99, 101, 111, 63, -102, 3, 28, 4, 45, 35, -71, -11, -97, -31, 62, -95, -71, -21, 93, 92, 72, 77, -84, -92, -109, 5, 50, -45, 50, -56, -62, -48, 110, -32, -73, 2, 63, 87, -26, 73, 100, 47, 89, 80, -112, 114, 38, -24, -106, 
  54, -88, 37, -82, 6, -97, 36, -17, -12, -51, 81, -82, 81, -59, -23, -56, 105, -92, -63, -15, 92, -106, -114, -106, 69, 8, -101, -30, -22, -114, -97, 82, 24, -113, -45, -32, -19, 35, 98, -35, -49, 38, -61, 1, 28, -88, 97, -37, 79, 94, 
  67, 102, 68, 11, -115, -3, 21, 34, 54, 113, 68, 101, 22, -82, 103, -39, 18, 23, 27, -85, -64, 21, 62, 13, -71, 28, -66, -46, -74, -100, 111, -44, -56, -32, 105, -68, -106, 7, 73, -28, -21, 104, 54, 52, -50, 114, -108, -87, -79, 6, 
  -4, 39, -85, -80, -37, 4, 106, 105, -33, 32, -6, -104, -66, 23, 17, -58, 75, -48, -2, 58, 94, 112, 2, -64, -69, -34, 49, -112, 68, 91, 69, 32, 53, -12, -31, -106, 10, 104, 112, -8, 60, -73, 62, 17, -35, 22, -94, -4, 32, -5, 
  -3, -101, 82, -32, 72, 85, -48, -95, -56, 66, -9, -12, 114, 97, -33, -65, 112, 103, 105, -47, 49, 15, -7, 113, -71, -31, 93, -13, -102, -113, 23, 92, 48, 88, 36, -30, 33, 68, -89, 82, 52, 97, -115, 96, -85, -45, -11, 7, -7, 61, 
  28, 106, -57, 111, 54, 103, -46, 67, -82, -61, -55, 70, -33, -7, 43, 67, 45, 74, 27, -45, 110, -22, -54, -43, 18, 106, 52, 65, 41, 39, 46, 91, -31, -75, -90, -97, 15, -67, -100, -55, 73, -105, 115, -101, 12, 82, -28, -57, -29, 112, 
  43, -71, -69, -27, 45, -18, -89, 6, 22, 72, 59, 2, -67, -56, -88, 91, -108, -108, -75, -96, 78, 28, -54, -75, -43, 104, -98, 66, -49, -96, -6, 93, -8, -31, -37, -83, 38, 8, -18, -39, 77, -5, -99, -109, 42, 93, -11, 82, 97, 29, 
  -2, -21, 87, 16, -55, -46, 14, 53, -76, 1, -70, 56, -103, -85, -115, 51, 23, 35, 58, -83, -8, 75, 14, 115, -11, -50, -58, 114, 45, 24, 22, 80, -32, -82, 17, -5, -106, 103, -60, -90, -88, 26, 74, -99, -15, 115, -36, -70, 79, -81, 
  -29, -47, -100, 38, 26, 34, -24, 78, -74, 33, 102, 108, -19, -89, 78, -115, 88, -115, -37, 74, -105, -45, 30, -73, 88, 11, -80, 108, -22, -44, 9, -37, 66, 11, -28, 24, 101, -21, 95, -110, -67, 43, 52, 38, 24, -78, 110, 102, 100, 33, 
  37, 30, 1, 22, -22, -106, -42, 98, 105, 91, -35, 12, 12, 60, 79, 70, 23, 110, -39, -103, 49, 43, -114, 101, 101, -23, 61, -16, -34, -35, 5, -46, 37, 93, 93, -59, 75, -76, -103, 24, 110, 16, -57, -87, -78, 46, 70, 42, 7, -21, 
  44, -66, 19, 61, -63, -73, 54, 87, -50, 11, 78, 106, 2, 8, -39, -44, 63, -110, -12, 100, 92, -44, -6, 111, -21, -31, -109, 14, 76, -1, -10, 77, -85, 62, 42, 55, 6, -116, -98, 71, -23, -96, 32, -112, -38, 37, -94, -28, 61, -96, 
  -13, -72, -10, -99, -108, -108, 94, 19, 51, 5, 96, 14, 84, 103, 50, 13, -97, 75, 38, 75, 115, -112, 13, 43, -44, 30, 85, -90, -67, 68, 100, 55, -114, 0, -41, -82, 108, 43, -82, -81, -66, -39, 111, -91, -70, 70, 43, -83, -103, 2, 
  -85, -94, -112, 110, 9, 18, -76, 0, 82, -49, -40, -54, 43, 75, 22, -61, -95, -10, -79, 77, 71, -67, 92, -1, -73, 37, -29, -74, 85, -31, 4, 97, 116, -69, -56, 59, 23, -65, -26, -73, 95, -85, -54, 49, -52, 108, -72, 82, 23, -44, 
};
const TfArray<2, int> tensor_dimension7 = { 2, { 25,50 } };
const TfArray<1, float> quant7_scale = { 1, { 0.0024413308128714561, } };
const TfArray<1, int> quant7_zero = { 1, { 0 } };
const TfLiteAffineQuantization quant7 = { (TfLiteFloatArray*)&quant7_scale, (TfLiteIntArray*)&quant7_zero, 0 };
const ALIGN(8) int8_t tensor_data8[8*25] = { 
  55, -100, -31, 89, 103, -112, -22, 121, -24, -38, 107, -80, 123, -89, 48, -103, -40, -102, -102, -50, -53, -123, -112, 34, -59, 
  -35, 10, -112, 50, 25, -77, -88, -112, 96, -72, -73, -67, -66, 21, -73, 41, 24, -119, -101, -30, 55, 93, -84, -44, -68, 
  -66, -110, 12, -108, 33, 73, -23, -45, -39, -40, -100, -18, 109, 16, -48, 74, -31, -120, 27, -113, -119, 53, 124, 71, -39, 
  27, 47, 68, -52, -58, -102, -97, -94, 31, 112, 83, -85, -55, -78, -65, -19, 104, -10, 99, -6, 72, -85, -2, 69, -81, 
  77, -62, -125, 100, -63, 64, 122, -71, -5, 54, -29, -108, 16, 55, -123, 28, 96, 106, 13, -101, 9, 37, -27, -2, -92, 
  -106, -98, -126, 53, -14, 8, -77, 82, 115, 12, -119, 9, 94, -98, 43, -62, -75, -93, 17, -22, 102, 92, 101, -37, 84, 
  -45, -103, -119, -10, -57, -1, 40, 127, 35, 4, 41, 71, 91, 85, -114, -102, 119, -8, -5, -119, -74, 53, 2, 20, 117, 
  97, -104, 20, -46, -97, 65, -117, -101, -6, 4, -18, -7, -96, 27, 34, -46, -78, 51, -41, -13, -34, 10, 47, -113, 68, 
};
const TfArray<2, int> tensor_dimension8 = { 2, { 8,25 } };
const TfArray<1, float> quant8_scale = { 1, { 0.0033989856019616127, } };
const TfArray<1, int> quant8_zero = { 1, { 0 } };
const TfLiteAffineQuantization quant8 = { (TfLiteFloatArray*)&quant8_scale, (TfLiteIntArray*)&quant8_zero, 0 };
const TfArray<2, int> tensor_dimension9 = { 2, { 1,75 } };
const TfArray<1, float> quant9_scale = { 1, { 4.3430371284484863, } };
const TfArray<1, int> quant9_zero = { 1, { -128 } };
const TfLiteAffineQuantization quant9 = { (TfLiteFloatArray*)&quant9_scale, (TfLiteIntArray*)&quant9_zero, 0 };
const TfArray<2, int> tensor_dimension10 = { 2, { 1,50 } };
const TfArray<1, float> quant10_scale = { 1, { 3.5898830890655518, } };
const TfArray<1, int> quant10_zero = { 1, { -128 } };
const TfLiteAffineQuantization quant10 = { (TfLiteFloatArray*)&quant10_scale, (TfLiteIntArray*)&quant10_zero, 0 };
const TfArray<2, int> tensor_dimension11 = { 2, { 1,25 } };
const TfArray<1, float> quant11_scale = { 1, { 1.3679662942886353, } };
const TfArray<1, int> quant11_zero = { 1, { -128 } };
const TfLiteAffineQuantization quant11 = { (TfLiteFloatArray*)&quant11_scale, (TfLiteIntArray*)&quant11_zero, 0 };
const TfArray<2, int> tensor_dimension12 = { 2, { 1,8 } };
const TfArray<1, float> quant12_scale = { 1, { 0.67625802755355835, } };
const TfArray<1, int> quant12_zero = { 1, { 94 } };
const TfLiteAffineQuantization quant12 = { (TfLiteFloatArray*)&quant12_scale, (TfLiteIntArray*)&quant12_zero, 0 };
const TfArray<2, int> tensor_dimension13 = { 2, { 1,8 } };
const TfArray<1, float> quant13_scale = { 1, { 0.00390625, } };
const TfArray<1, int> quant13_zero = { 1, { -128 } };
const TfLiteAffineQuantization quant13 = { (TfLiteFloatArray*)&quant13_scale, (TfLiteIntArray*)&quant13_zero, 0 };
const TfLiteFullyConnectedParams opdata0 = { kTfLiteActRelu, kTfLiteFullyConnectedWeightsFormatDefault, false, false };
const TfArray<3, int> inputs0 = { 3, { 0,5,1 } };
const TfArray<1, int> outputs0 = { 1, { 9 } };
const TfLiteFullyConnectedParams opdata1 = { kTfLiteActRelu, kTfLiteFullyConnectedWeightsFormatDefault, false, false };
const TfArray<3, int> inputs1 = { 3, { 9,6,2 } };
const TfArray<1, int> outputs1 = { 1, { 10 } };
const TfLiteFullyConnectedParams opdata2 = { kTfLiteActRelu, kTfLiteFullyConnectedWeightsFormatDefault, false, false };
const TfArray<3, int> inputs2 = { 3, { 10,7,3 } };
const TfArray<1, int> outputs2 = { 1, { 11 } };
const TfLiteFullyConnectedParams opdata3 = { kTfLiteActNone, kTfLiteFullyConnectedWeightsFormatDefault, false, false };
const TfArray<3, int> inputs3 = { 3, { 11,8,4 } };
const TfArray<1, int> outputs3 = { 1, { 12 } };
const TfLiteSoftmaxParams opdata4 = { 1 };
const TfArray<1, int> inputs4 = { 1, { 12 } };
const TfArray<1, int> outputs4 = { 1, { 13 } };
const TensorInfo_t tensorData[] = {
  { kTfLiteArenaRw, kTfLiteInt8, tensor_arena + 0, (TfLiteIntArray*)&tensor_dimension0, 135, {kTfLiteAffineQuantization, const_cast<void*>(static_cast<const void*>(&quant0))}, },
  { kTfLiteMmapRo, kTfLiteInt32, (void*)tensor_data1, (TfLiteIntArray*)&tensor_dimension1, 300, {kTfLiteAffineQuantization, const_cast<void*>(static_cast<const void*>(&quant1))}, },
  { kTfLiteMmapRo, kTfLiteInt32, (void*)tensor_data2, (TfLiteIntArray*)&tensor_dimension2, 200, {kTfLiteAffineQuantization, const_cast<void*>(static_cast<const void*>(&quant2))}, },
  { kTfLiteMmapRo, kTfLiteInt32, (void*)tensor_data3, (TfLiteIntArray*)&tensor_dimension3, 100, {kTfLiteAffineQuantization, const_cast<void*>(static_cast<const void*>(&quant3))}, },
  { kTfLiteMmapRo, kTfLiteInt32, (void*)tensor_data4, (TfLiteIntArray*)&tensor_dimension4, 32, {kTfLiteAffineQuantization, const_cast<void*>(static_cast<const void*>(&quant4))}, },
  { kTfLiteMmapRo, kTfLiteInt8, (void*)tensor_data5, (TfLiteIntArray*)&tensor_dimension5, 10125, {kTfLiteAffineQuantization, const_cast<void*>(static_cast<const void*>(&quant5))}, },
  { kTfLiteMmapRo, kTfLiteInt8, (void*)tensor_data6, (TfLiteIntArray*)&tensor_dimension6, 3750, {kTfLiteAffineQuantization, const_cast<void*>(static_cast<const void*>(&quant6))}, },
  { kTfLiteMmapRo, kTfLiteInt8, (void*)tensor_data7, (TfLiteIntArray*)&tensor_dimension7, 1250, {kTfLiteAffineQuantization, const_cast<void*>(static_cast<const void*>(&quant7))}, },
  { kTfLiteMmapRo, kTfLiteInt8, (void*)tensor_data8, (TfLiteIntArray*)&tensor_dimension8, 200, {kTfLiteAffineQuantization, const_cast<void*>(static_cast<const void*>(&quant8))}, },
  { kTfLiteArenaRw, kTfLiteInt8, tensor_arena + 144, (TfLiteIntArray*)&tensor_dimension9, 75, {kTfLiteAffineQuantization, const_cast<void*>(static_cast<const void*>(&quant9))}, },
  { kTfLiteArenaRw, kTfLiteInt8, tensor_arena + 0, (TfLiteIntArray*)&tensor_dimension10, 50, {kTfLiteAffineQuantization, const_cast<void*>(static_cast<const void*>(&quant10))}, },
  { kTfLiteArenaRw, kTfLiteInt8, tensor_arena + 64, (TfLiteIntArray*)&tensor_dimension11, 25, {kTfLiteAffineQuantization, const_cast<void*>(static_cast<const void*>(&quant11))}, },
  { kTfLiteArenaRw, kTfLiteInt8, tensor_arena + 16, (TfLiteIntArray*)&tensor_dimension12, 8, {kTfLiteAffineQuantization, const_cast<void*>(static_cast<const void*>(&quant12))}, },
  { kTfLiteArenaRw, kTfLiteInt8, tensor_arena + 0, (TfLiteIntArray*)&tensor_dimension13, 8, {kTfLiteAffineQuantization, const_cast<void*>(static_cast<const void*>(&quant13))}, },
};const NodeInfo_t nodeData[] = {
  { (TfLiteIntArray*)&inputs0, (TfLiteIntArray*)&outputs0, const_cast<void*>(static_cast<const void*>(&opdata0)), OP_FULLY_CONNECTED, },
  { (TfLiteIntArray*)&inputs1, (TfLiteIntArray*)&outputs1, const_cast<void*>(static_cast<const void*>(&opdata1)), OP_FULLY_CONNECTED, },
  { (TfLiteIntArray*)&inputs2, (TfLiteIntArray*)&outputs2, const_cast<void*>(static_cast<const void*>(&opdata2)), OP_FULLY_CONNECTED, },
  { (TfLiteIntArray*)&inputs3, (TfLiteIntArray*)&outputs3, const_cast<void*>(static_cast<const void*>(&opdata3)), OP_FULLY_CONNECTED, },
  { (TfLiteIntArray*)&inputs4, (TfLiteIntArray*)&outputs4, const_cast<void*>(static_cast<const void*>(&opdata4)), OP_SOFTMAX, },
};
static std::vector<void*> overflow_buffers;
static TfLiteStatus AllocatePersistentBuffer(struct TfLiteContext* ctx,
                                                 size_t bytes, void** ptr) {
  if (current_location - bytes < tensor_boundary) {
    // OK, this will look super weird, but.... we have CMSIS-NN buffers which
    // we cannot calculate beforehand easily.
    *ptr = malloc(bytes);
    if (*ptr == NULL) {
      printf("ERR: Failed to allocate persistent buffer of size %u\n", bytes);
      return kTfLiteError;
    }
    overflow_buffers.push_back(*ptr);
    return kTfLiteOk;
  }

  current_location -= bytes;

  *ptr = current_location;
  return kTfLiteOk;
}
typedef struct {
  size_t bytes;
  void *ptr;
} scratch_buffer_t;
static std::vector<scratch_buffer_t> scratch_buffers;

static TfLiteStatus RequestScratchBufferInArena(struct TfLiteContext* ctx, size_t bytes,
                                                int* buffer_idx) {
  scratch_buffer_t b;
  b.bytes = bytes;

  TfLiteStatus s = AllocatePersistentBuffer(ctx, b.bytes, &b.ptr);
  if (s != kTfLiteOk) {
    return s;
  }

  scratch_buffers.push_back(b);

  *buffer_idx = scratch_buffers.size() - 1;

  return kTfLiteOk;
}

static void* GetScratchBuffer(struct TfLiteContext* ctx, int buffer_idx) {
  if (buffer_idx > static_cast<int>(scratch_buffers.size()) - 1) {
    return NULL;
  }
  return scratch_buffers[buffer_idx].ptr;
}
} // namespace

  TfLiteStatus trained_model_init( void*(*alloc_fnc)(size_t,size_t) ) {
  tensor_arena = (uint8_t*) alloc_fnc(16, kTensorArenaSize);
  current_location = tensor_arena + kTensorArenaSize;
  tensor_boundary = tensor_arena;
  ctx.AllocatePersistentBuffer = &AllocatePersistentBuffer;
  ctx.RequestScratchBufferInArena = &RequestScratchBufferInArena;
  ctx.GetScratchBuffer = &GetScratchBuffer;
  ctx.tensors = tflTensors;
  ctx.tensors_size = 14;
  for(size_t i = 0; i < 14; ++i) {
    tflTensors[i].type = tensorData[i].type;
    tflTensors[i].is_variable = 0;
    tflTensors[i].allocation_type = tensorData[i].allocation_type;
    tflTensors[i].bytes = tensorData[i].bytes;
    tflTensors[i].dims = tensorData[i].dims;
    if(tflTensors[i].allocation_type == kTfLiteArenaRw){
      uint8_t* start = (uint8_t*) ((uintptr_t)tensorData[i].data + (uintptr_t) tensor_arena);
      uint8_t* end = start + tensorData[i].bytes;

     tflTensors[i].data.data =  start;

     if (end > tensor_boundary) {
       tensor_boundary = end;
     }
    }
    else{
       tflTensors[i].data.data = tensorData[i].data;
    }
    tflTensors[i].quantization = tensorData[i].quantization;
    if (tflTensors[i].quantization.type == kTfLiteAffineQuantization) {
      TfLiteAffineQuantization const* quant = ((TfLiteAffineQuantization const*)(tensorData[i].quantization.params));
      tflTensors[i].params.scale = quant->scale->data[0];
      tflTensors[i].params.zero_point = quant->zero_point->data[0];
    }
  }
  registrations[OP_FULLY_CONNECTED] = *tflite::ops::micro::Register_FULLY_CONNECTED();
  registrations[OP_SOFTMAX] = *tflite::ops::micro::Register_SOFTMAX();

  for(size_t i = 0; i < 5; ++i) {
    tflNodes[i].inputs = nodeData[i].inputs;
    tflNodes[i].outputs = nodeData[i].outputs;
    tflNodes[i].builtin_data = nodeData[i].builtin_data;
    tflNodes[i].custom_initial_data = nullptr;
    tflNodes[i].custom_initial_data_size = 0;
    if (registrations[nodeData[i].used_op_index].init) {
      tflNodes[i].user_data = registrations[nodeData[i].used_op_index].init(&ctx, (const char*)tflNodes[i].builtin_data, 0);
    }
  }
  for(size_t i = 0; i < 5; ++i) {
    if (registrations[nodeData[i].used_op_index].prepare) {
      TfLiteStatus status = registrations[nodeData[i].used_op_index].prepare(&ctx, &tflNodes[i]);
      if (status != kTfLiteOk) {
        return status;
      }
    }
  }
  return kTfLiteOk;
}

static const int inTensorIndices[] = {
  0, 
};
TfLiteTensor* trained_model_input(int index) {
  return &ctx.tensors[inTensorIndices[index]];
}

static const int outTensorIndices[] = {
  13, 
};
TfLiteTensor* trained_model_output(int index) {
  return &ctx.tensors[outTensorIndices[index]];
}

TfLiteStatus trained_model_invoke() {
  for(size_t i = 0; i < 5; ++i) {
    TfLiteStatus status = registrations[nodeData[i].used_op_index].invoke(&ctx, &tflNodes[i]);
    if (status != kTfLiteOk) {
      return status;
    }
  }
  return kTfLiteOk;
}

TfLiteStatus trained_model_reset( void (*free_fnc)(void* ptr) ) {
  free_fnc(tensor_arena);
  scratch_buffers.clear();
  for (size_t ix = 0; ix < overflow_buffers.size(); ix++) {
    free(overflow_buffers[ix]);
  }
  overflow_buffers.clear();
  return kTfLiteOk;
}
